<?xml version="1.0"?>
<PMML version="4.3" xmlns="http://www.dmg.org/PMML-4_3" xmlns:xsi="http://www.w3.org/2001/XMLSchema-instance">
  <Header description="TreeNet Model">
    <Application name="SPM" version="8.3.0.002"/>
    <Timestamp>2020-01-18T00:14:22</Timestamp>
  </Header>
  <DataDictionary numberOfFields="5">
    <DataField name="ENTAGE" optype="continuous" dataType="double"/>
    <DataField name="FOLLOW" optype="continuous" dataType="double"/>
    <DataField name="PD" optype="continuous" dataType="double"/>
    <DataField name="FATE" optype="categorical" dataType="integer">
      <Value value="0" property="valid"/>
      <Value value="1" property="valid"/>
    </DataField>
    <DataField name="FH" optype="continuous" dataType="double"/>
    <!--If an INIT variable was used to develop this model, then uncomment the following element and change the variable name to the one actually used (and increment numberOfFields).  You will also need to uncomment the appropriate elements in the mining schema and in the final regression.-->
    <!--DataField name='init' displayName='TreeNet initialization variable' optype='continuous' dataType='double'-->
  </DataDictionary>
  <MiningModel modelName="TreeNet_1" functionName="classification" algorithmName="MART">
    <MiningSchema>
      <MiningField name="FATE" usageType="predicted" invalidValueTreatment="asMissing" missingValueTreatment="asIs"/>
      <MiningField name="ENTAGE" usageType="active" importance="0.642907697449032" invalidValueTreatment="asMissing" missingValueTreatment="asMedian" missingValueReplacement="42"/>
      <MiningField name="FOLLOW" usageType="active" importance="1" invalidValueTreatment="asMissing" missingValueTreatment="asMedian" missingValueReplacement="16.73101"/>
      <MiningField name="PD" usageType="active" importance="0.398026584225453" invalidValueTreatment="asMissing" missingValueTreatment="asMedian" missingValueReplacement="1"/>
      <MiningField name="FH" usageType="active" importance="0.330123842936658" invalidValueTreatment="asMissing" missingValueTreatment="asMedian" missingValueReplacement="0"/>
      <!--If an INIT variable was used, then uncomment the following element and set the name appropriately-->
      <!--MiningField name='init' usageType='active' missingValueReplacement='0'-->
    </MiningSchema>
    <Output>
      <OutputField name="PROB_0" optype="continuous" dataType="double" feature="probability" targetField="FATE" value="0"/>
      <OutputField name="PROB_1" optype="continuous" dataType="double" feature="probability" targetField="FATE" value="1"/>
      <OutputField name="PREDICTION" optype="categorical" dataType="integer" targetField="FATE" feature="transformedValue">
        <Discretize field="PROB_1" dataType="integer" defaultValue="0">
          <DiscretizeBin binValue="1">
            <Interval closure="openOpen" leftMargin="0.5"/>
          </DiscretizeBin>
        </Discretize>
      </OutputField>
    </Output>
    <Segmentation multipleModelMethod="modelChain">
      <Segment id="Tree1">
        <True/>
        <TreeModel modelName="Tree1" functionName="regression" algorithmName="MART" missingValueStrategy="none" splitCharacteristic="binarySplit">
          <MiningSchema>
            <MiningField name="ENTAGE" usageType="active"/>
            <MiningField name="FOLLOW" usageType="active"/>
            <MiningField name="PD" usageType="active"/>
          </MiningSchema>
          <Output>
            <OutputField name="Response1" optype="continuous" dataType="double" feature="predictedValue"/>
            <OutputField name="Node1" optype="categorical" dataType="integer" feature="entityId"/>
          </Output>
          <Node id="-1" score="-1.57410037430955">
            <True/>
            <Node id="-2" score="-1.0285178783328">
              <SimplePredicate field="FOLLOW" operator="lessThan" value="6.930869"/>
              <Node id="-3" score="-0.884495049192194">
                <SimplePredicate field="ENTAGE" operator="lessThan" value="49.5"/>
                <Node id="-4" score="-1.2119803958469">
                  <SimplePredicate field="ENTAGE" operator="lessThan" value="42.5"/>
                  <Node id="1" score="-1.52879670950083">
                    <SimplePredicate field="ENTAGE" operator="lessThan" value="37.5"/>
                  </Node>
                  <Node id="-5" score="-1.0477293263311">
                    <True/>
                    <Node id="2" score="-1.39591017636386">
                      <SimplePredicate field="FOLLOW" operator="lessThan" value="2.77755"/>
                    </Node>
                    <Node id="3" score="-1.09839193026225">
                      <True/>
                    </Node>
                  </Node>
                </Node>
                <Node id="4" score="-0.781679062616257">
                  <True/>
                </Node>
              </Node>
              <Node id="-6" score="-1.31159736370218">
                <True/>
                <Node id="5" score="-1.6262469972883">
                  <SimplePredicate field="FOLLOW" operator="lessThan" value="4.502396"/>
                </Node>
                <Node id="6" score="-1.20396296183268">
                  <True/>
                </Node>
              </Node>
            </Node>
            <Node id="-7" score="-1.60406221314256">
              <True/>
              <Node id="-8" score="-1.50425101017606">
                <SimplePredicate field="FOLLOW" operator="lessThan" value="13.05133"/>
                <Node id="-9" score="-1.54487105289778">
                  <SimplePredicate field="PD" operator="lessThan" value="1.5"/>
                  <Node id="-10" score="-1.50982793837942">
                    <SimplePredicate field="ENTAGE" operator="lessThan" value="50.5"/>
                    <Node id="-11" score="-1.55184976415696">
                      <SimplePredicate field="ENTAGE" operator="lessThan" value="45.5"/>
                      <Node id="-12" score="-1.60642490386963">
                        <SimplePredicate field="ENTAGE" operator="lessThan" value="39.5"/>
                        <Node id="7" score="-1.60788671521173">
                          <SimplePredicate field="FOLLOW" operator="lessThan" value="12.58179"/>
                        </Node>
                        <Node id="8" score="-1.5110785744407">
                          <True/>
                        </Node>
                      </Node>
                      <Node id="-13" score="-1.49204139186911">
                        <True/>
                        <Node id="9" score="-1.48548564204463">
                          <SimplePredicate field="FOLLOW" operator="lessThan" value="12.37782"/>
                        </Node>
                        <Node id="10" score="-1.62624690407201">
                          <True/>
                        </Node>
                      </Node>
                    </Node>
                    <Node id="-14" score="-1.34063540006939">
                      <True/>
                      <Node id="11" score="-1.55957041288677">
                        <SimplePredicate field="FOLLOW" operator="lessThan" value="11.12526"/>
                      </Node>
                      <Node id="12" score="-1.29286474930613">
                        <True/>
                      </Node>
                    </Node>
                  </Node>
                  <Node id="13" score="-1.62624689737956">
                    <True/>
                  </Node>
                </Node>
                <Node id="-15" score="-1.09642501831055">
                  <True/>
                  <Node id="14" score="-1.08331039973668">
                    <SimplePredicate field="ENTAGE" operator="lessThan" value="49.5"/>
                  </Node>
                  <Node id="15" score="-1.5110785744407">
                    <True/>
                  </Node>
                </Node>
              </Node>
              <Node id="-16" score="-1.62541712088178">
                <True/>
                <Node id="-17" score="-1.63154928482587">
                  <SimplePredicate field="PD" operator="lessThan" value="1.5"/>
                  <Node id="-18" score="-1.60716390374846">
                    <SimplePredicate field="FOLLOW" operator="lessThan" value="14.85284"/>
                    <Node id="-19" score="-1.63289543600643">
                      <SimplePredicate field="FOLLOW" operator="lessThan" value="14.47502"/>
                      <Node id="-20" score="-1.6424388752117">
                        <SimplePredicate field="ENTAGE" operator="lessThan" value="51.5"/>
                        <Node id="16" score="-1.59376349815956">
                          <SimplePredicate field="FOLLOW" operator="lessThan" value="13.44969"/>
                        </Node>
                        <Node id="17" score="-1.62624696584848">
                          <True/>
                        </Node>
                      </Node>
                      <Node id="-21" score="-1.58235083685981">
                        <True/>
                        <Node id="18" score="-1.5110785744407">
                          <SimplePredicate field="ENTAGE" operator="lessThan" value="59.5"/>
                        </Node>
                        <Node id="19" score="-1.62624680995941">
                          <True/>
                        </Node>
                      </Node>
                    </Node>
                    <Node id="-22" score="-1.47460660067472">
                      <True/>
                      <Node id="20" score="-1.39591017636386">
                        <SimplePredicate field="ENTAGE" operator="lessThan" value="37.5"/>
                      </Node>
                      <Node id="-23" score="-1.56551586497914">
                        <True/>
                        <Node id="21" score="-1.62624688581987">
                          <SimplePredicate field="ENTAGE" operator="lessThan" value="43"/>
                        </Node>
                        <Node id="22" score="-1.5110785744407">
                          <True/>
                        </Node>
                      </Node>
                    </Node>
                  </Node>
                  <Node id="-24" score="-1.63648471090634">
                    <True/>
                    <Node id="-25" score="-1.60716375341556">
                      <SimplePredicate field="ENTAGE" operator="lessThan" value="32.5"/>
                      <Node id="23" score="-1.50559434436616">
                        <SimplePredicate field="FOLLOW" operator="lessThan" value="15.98631"/>
                      </Node>
                      <Node id="-26" score="-1.62345785623068">
                        <True/>
                        <Node id="24" score="-1.61827922317217">
                          <SimplePredicate field="ENTAGE" operator="lessThan" value="31.5"/>
                        </Node>
                        <Node id="25" score="-1.51608591494353">
                          <True/>
                        </Node>
                      </Node>
                    </Node>
                    <Node id="-27" score="-1.64392501831055">
                      <True/>
                      <Node id="-28" score="-1.65252626058419">
                        <SimplePredicate field="FOLLOW" operator="lessThan" value="20.4271"/>
                        <Node id="26" score="-1.6027867352521">
                          <SimplePredicate field="ENTAGE" operator="lessThan" value="35.5"/>
                        </Node>
                        <Node id="27" score="-1.62624689904173">
                          <True/>
                        </Node>
                      </Node>
                      <Node id="-29" score="-1.62855024703288">
                        <True/>
                        <Node id="28" score="-1.57116632876189">
                          <SimplePredicate field="FOLLOW" operator="lessThan" value="21.22245"/>
                        </Node>
                        <Node id="29" score="-1.62043566222585">
                          <True/>
                        </Node>
                      </Node>
                    </Node>
                  </Node>
                </Node>
                <Node id="-30" score="-1.53737731206985">
                  <True/>
                  <Node id="30" score="-1.62624698215061">
                    <SimplePredicate field="FOLLOW" operator="lessThan" value="16.35866"/>
                  </Node>
                  <Node id="-31" score="-1.48098634418688">
                    <True/>
                    <Node id="-32" score="-1.42386671554211">
                      <SimplePredicate field="FOLLOW" operator="lessThan" value="24.48323"/>
                      <Node id="-33" score="-1.34392488002777">
                        <SimplePredicate field="ENTAGE" operator="lessThan" value="49.5"/>
                        <Node id="31" score="-1.50559434436616">
                          <SimplePredicate field="ENTAGE" operator="lessThan" value="45.5"/>
                        </Node>
                        <Node id="32" score="-1.28074177828702">
                          <True/>
                        </Node>
                      </Node>
                      <Node id="33" score="-1.62624688581987">
                        <True/>
                      </Node>
                    </Node>
                    <Node id="34" score="-1.6262469972883">
                      <True/>
                    </Node>
                  </Node>
                </Node>
              </Node>
            </Node>
          </Node>
        </TreeModel>
      </Segment>
      <Segment id="Tree2">
        <True/>
        <TreeModel modelName="Tree2" functionName="regression" algorithmName="MART" missingValueStrategy="none" splitCharacteristic="binarySplit">
          <MiningSchema>
            <MiningField name="ENTAGE" usageType="active"/>
            <MiningField name="FOLLOW" usageType="active"/>
            <MiningField name="PD" usageType="active"/>
            <MiningField name="FH" usageType="active"/>
          </MiningSchema>
          <Output>
            <OutputField name="Response2" optype="continuous" dataType="double" feature="predictedValue"/>
            <OutputField name="Node2" optype="categorical" dataType="integer" feature="entityId"/>
          </Output>
          <Node id="-1" score="-0.00333587222757409">
            <True/>
            <Node id="-2" score="0.432224273681641">
              <SimplePredicate field="FOLLOW" operator="lessThan" value="7.140315"/>
              <Node id="-3" score="0.347392093988112">
                <SimplePredicate field="FH" operator="lessThan" value="0.5"/>
                <Node id="-4" score="0.24941141465131">
                  <SimplePredicate field="PD" operator="lessThan" value="1.5"/>
                  <Node id="-5" score="0.402739249335395">
                    <SimplePredicate field="ENTAGE" operator="lessThan" value="47.5"/>
                    <Node id="-6" score="0.580702428464536">
                      <SimplePredicate field="FOLLOW" operator="lessThan" value="4.412046"/>
                      <Node id="1" score="0.112251050770283">
                        <SimplePredicate field="FOLLOW" operator="lessThan" value="2.36961"/>
                      </Node>
                      <Node id="2" score="0.283407514745539">
                        <True/>
                      </Node>
                    </Node>
                    <Node id="3" score="0.0393245021502177">
                      <True/>
                    </Node>
                  </Node>
                  <Node id="-7" score="-0.0505778323049131">
                    <True/>
                    <Node id="4" score="-0.0562179088592529">
                      <SimplePredicate field="ENTAGE" operator="lessThan" value="63.5"/>
                    </Node>
                    <Node id="5" score="0.0379288817445437">
                      <True/>
                    </Node>
                  </Node>
                </Node>
                <Node id="6" score="0.229321479797363">
                  <True/>
                </Node>
              </Node>
              <Node id="7" score="0.283249443227595">
                <True/>
              </Node>
            </Node>
            <Node id="-8" score="-0.0290227523216834">
              <True/>
              <Node id="-9" score="0.0553303294711643">
                <SimplePredicate field="FOLLOW" operator="lessThan" value="13.05133"/>
                <Node id="-10" score="0.0269644357324616">
                  <SimplePredicate field="PD" operator="lessThan" value="1.5"/>
                  <Node id="-11" score="0.0575572069359835">
                    <SimplePredicate field="ENTAGE" operator="lessThan" value="50.5"/>
                    <Node id="-12" score="0.0208544478511179">
                      <SimplePredicate field="ENTAGE" operator="lessThan" value="45.5"/>
                      <Node id="-13" score="-0.02870839155173">
                        <SimplePredicate field="ENTAGE" operator="lessThan" value="39.5"/>
                        <Node id="8" score="0.0137431621551514">
                          <SimplePredicate field="ENTAGE" operator="lessThan" value="34.5"/>
                        </Node>
                        <Node id="9" score="-0.0520826547573774">
                          <True/>
                        </Node>
                      </Node>
                      <Node id="-14" score="0.0752358966403537">
                        <True/>
                        <Node id="10" score="0.0694870004114115">
                          <SimplePredicate field="FOLLOW" operator="lessThan" value="12.37782"/>
                        </Node>
                        <Node id="11" score="-0.0519338846206665">
                          <True/>
                        </Node>
                      </Node>
                    </Node>
                    <Node id="-15" score="0.203402381194265">
                      <True/>
                      <Node id="12" score="0.0127142644242236">
                        <SimplePredicate field="FOLLOW" operator="lessThan" value="11.12526"/>
                      </Node>
                      <Node id="13" score="0.148184387307418">
                        <True/>
                      </Node>
                    </Node>
                  </Node>
                  <Node id="14" score="-0.0519338825292755">
                    <True/>
                  </Node>
                </Node>
                <Node id="-16" score="0.346080740292867">
                  <True/>
                  <Node id="15" score="0.193083506364089">
                    <SimplePredicate field="FOLLOW" operator="lessThan" value="10.85968"/>
                  </Node>
                  <Node id="16" score="0.0194303528829054">
                    <True/>
                  </Node>
                </Node>
              </Node>
              <Node id="-17" score="-0.0466780492501665">
                <True/>
                <Node id="-18" score="-0.052068605944885">
                  <SimplePredicate field="PD" operator="lessThan" value="1.5"/>
                  <Node id="-19" score="-0.0303545303532643">
                    <SimplePredicate field="FOLLOW" operator="lessThan" value="14.85284"/>
                    <Node id="-20" score="-0.0532369894139907">
                      <SimplePredicate field="FOLLOW" operator="lessThan" value="14.47502"/>
                      <Node id="-21" score="-0.0361160912464574">
                        <SimplePredicate field="FOLLOW" operator="lessThan" value="13.84942"/>
                        <Node id="17" score="-0.0361882574418012">
                          <SimplePredicate field="FOLLOW" operator="lessThan" value="13.75496"/>
                        </Node>
                        <Node id="18" score="0.0598074694474538">
                          <True/>
                        </Node>
                      </Node>
                      <Node id="-22" score="-0.0759866727541571">
                        <True/>
                        <Node id="19" score="-0.0519338787579146">
                          <SimplePredicate field="ENTAGE" operator="lessThan" value="52"/>
                        </Node>
                        <Node id="20" score="-0.0522106885910034">
                          <True/>
                        </Node>
                      </Node>
                    </Node>
                    <Node id="-23" score="0.0875248114267985">
                      <True/>
                      <Node id="21" score="0.161729281598871">
                        <SimplePredicate field="FOLLOW" operator="lessThan" value="14.62423"/>
                      </Node>
                      <Node id="-24" score="-0.0060221024534919">
                        <True/>
                        <Node id="22" score="-0.0528413382443515">
                          <SimplePredicate field="ENTAGE" operator="lessThan" value="38.5"/>
                        </Node>
                        <Node id="23" score="0.053977142680775">
                          <True/>
                        </Node>
                      </Node>
                    </Node>
                  </Node>
                  <Node id="-25" score="-0.0564633803971387">
                    <True/>
                    <Node id="-26" score="-0.0301032888478246">
                      <SimplePredicate field="ENTAGE" operator="lessThan" value="32.5"/>
                      <Node id="24" score="0.054018117132641">
                        <SimplePredicate field="FOLLOW" operator="lessThan" value="15.98631"/>
                      </Node>
                      <Node id="-27" score="-0.0447263822450743">
                        <True/>
                        <Node id="25" score="-0.0433217684427897">
                          <SimplePredicate field="ENTAGE" operator="lessThan" value="31.5"/>
                        </Node>
                        <Node id="26" score="0.0466783305873042">
                          <True/>
                        </Node>
                      </Node>
                    </Node>
                    <Node id="-28" score="-0.0631522560119629">
                      <True/>
                      <Node id="-29" score="-0.0747985945514034">
                        <SimplePredicate field="FOLLOW" operator="lessThan" value="18.43943"/>
                        <Node id="27" score="-0.0520268363111159">
                          <SimplePredicate field="ENTAGE" operator="lessThan" value="35.5"/>
                        </Node>
                        <Node id="28" score="-0.0519338835270033">
                          <True/>
                        </Node>
                      </Node>
                      <Node id="-30" score="-0.0535751985797578">
                        <True/>
                        <Node id="29" score="0.0733147426085039">
                          <SimplePredicate field="FOLLOW" operator="lessThan" value="18.58179"/>
                        </Node>
                        <Node id="30" score="-0.0392654989367334">
                          <True/>
                        </Node>
                      </Node>
                    </Node>
                  </Node>
                </Node>
                <Node id="-31" score="0.0307149347804842">
                  <True/>
                  <Node id="31" score="0.140366801848778">
                    <SimplePredicate field="ENTAGE" operator="lessThan" value="35.5"/>
                  </Node>
                  <Node id="-32" score="-0.00472600611162857">
                    <True/>
                    <Node id="-33" score="-0.0530124680470612">
                      <SimplePredicate field="FH" operator="lessThan" value="0.5"/>
                      <Node id="32" score="0.0147675901651382">
                        <SimplePredicate field="FOLLOW" operator="lessThan" value="16.40383"/>
                      </Node>
                      <Node id="-34" score="-0.0915230176387689">
                        <True/>
                        <Node id="33" score="-0.0527591237000057">
                          <SimplePredicate field="FOLLOW" operator="lessThan" value="24.39562"/>
                        </Node>
                        <Node id="34" score="-0.0519338792020624">
                          <True/>
                        </Node>
                      </Node>
                    </Node>
                    <Node id="35" score="0.122326632340749">
                      <True/>
                    </Node>
                  </Node>
                </Node>
              </Node>
            </Node>
          </Node>
        </TreeModel>
      </Segment>
      <Segment id="Tree3">
        <True/>
        <TreeModel modelName="Tree3" functionName="regression" algorithmName="MART" missingValueStrategy="none" splitCharacteristic="binarySplit">
          <MiningSchema>
            <MiningField name="ENTAGE" usageType="active"/>
            <MiningField name="FOLLOW" usageType="active"/>
            <MiningField name="PD" usageType="active"/>
            <MiningField name="FH" usageType="active"/>
          </MiningSchema>
          <Output>
            <OutputField name="Response3" optype="continuous" dataType="double" feature="predictedValue"/>
            <OutputField name="Node3" optype="categorical" dataType="integer" feature="entityId"/>
          </Output>
          <Node id="-1" score="-0.00395489287434132">
            <True/>
            <Node id="-2" score="0.380536079406738">
              <SimplePredicate field="FOLLOW" operator="lessThan" value="7.140315"/>
              <Node id="-3" score="0.306236267089844">
                <SimplePredicate field="FH" operator="lessThan" value="0.5"/>
                <Node id="-4" score="0.219758258146398">
                  <SimplePredicate field="PD" operator="lessThan" value="1.5"/>
                  <Node id="-5" score="0.355600145128038">
                    <SimplePredicate field="ENTAGE" operator="lessThan" value="47.5"/>
                    <Node id="1" score="0.0177939133002208">
                      <SimplePredicate field="ENTAGE" operator="lessThan" value="37.5"/>
                    </Node>
                    <Node id="-6" score="0.48439159989357">
                      <True/>
                      <Node id="2" score="0.151716295041536">
                        <SimplePredicate field="FOLLOW" operator="lessThan" value="4.412046"/>
                      </Node>
                      <Node id="3" score="0.0472004321905283">
                        <True/>
                      </Node>
                    </Node>
                  </Node>
                  <Node id="-7" score="-0.04601934681768">
                    <True/>
                    <Node id="4" score="-0.0555836720900102">
                      <SimplePredicate field="ENTAGE" operator="lessThan" value="63.5"/>
                    </Node>
                    <Node id="5" score="0.0317999497056007">
                      <True/>
                    </Node>
                  </Node>
                </Node>
                <Node id="6" score="0.148168087005615">
                  <True/>
                </Node>
              </Node>
              <Node id="7" score="0.170544147491455">
                <True/>
              </Node>
            </Node>
            <Node id="-8" score="-0.0266300005790515">
              <True/>
              <Node id="-9" score="0.0486132233231156">
                <SimplePredicate field="FOLLOW" operator="lessThan" value="13.05133"/>
                <Node id="-10" score="0.0235077656381499">
                  <SimplePredicate field="PD" operator="lessThan" value="1.5"/>
                  <Node id="-11" score="0.050916833221597">
                    <SimplePredicate field="ENTAGE" operator="lessThan" value="50.5"/>
                    <Node id="-12" score="0.0316551115321017">
                      <SimplePredicate field="ENTAGE" operator="lessThan" value="47.5"/>
                      <Node id="-13" score="-0.0254344967278567">
                        <SimplePredicate field="FOLLOW" operator="lessThan" value="11.54415"/>
                        <Node id="8" score="0.0401111336854788">
                          <SimplePredicate field="FOLLOW" operator="lessThan" value="9.767282"/>
                        </Node>
                        <Node id="9" score="-0.0350746608549549">
                          <True/>
                        </Node>
                      </Node>
                      <Node id="-14" score="0.0900723823281222">
                        <True/>
                        <Node id="10" score="-0.0162674688004159">
                          <SimplePredicate field="ENTAGE" operator="lessThan" value="39.5"/>
                        </Node>
                        <Node id="11" score="0.0863958962109624">
                          <True/>
                        </Node>
                      </Node>
                    </Node>
                    <Node id="12" score="0.117628900210063">
                      <True/>
                    </Node>
                  </Node>
                  <Node id="13" score="-0.051743093289827">
                    <True/>
                  </Node>
                </Node>
                <Node id="-15" score="0.305944164594014">
                  <True/>
                  <Node id="14" score="0.12621532036708">
                    <SimplePredicate field="FOLLOW" operator="lessThan" value="10.85968"/>
                  </Node>
                  <Node id="15" score="0.0168924182653427">
                    <True/>
                  </Node>
                </Node>
              </Node>
              <Node id="-16" score="-0.0423785838045815">
                <True/>
                <Node id="-17" score="-0.0471811468526103">
                  <SimplePredicate field="PD" operator="lessThan" value="1.5"/>
                  <Node id="-18" score="-0.0278399237271013">
                    <SimplePredicate field="FOLLOW" operator="lessThan" value="14.85284"/>
                    <Node id="-19" score="-0.0481893315034754">
                      <SimplePredicate field="FOLLOW" operator="lessThan" value="14.47502"/>
                      <Node id="-20" score="-0.0566930704183512">
                        <SimplePredicate field="ENTAGE" operator="lessThan" value="51.5"/>
                        <Node id="16" score="-0.0159126841104948">
                          <SimplePredicate field="FOLLOW" operator="lessThan" value="13.44969"/>
                        </Node>
                        <Node id="17" score="-0.0518064407201914">
                          <True/>
                        </Node>
                      </Node>
                      <Node id="-21" score="-0.00315101941426595">
                        <True/>
                        <Node id="18" score="0.0552998401901939">
                          <SimplePredicate field="ENTAGE" operator="lessThan" value="59.5"/>
                        </Node>
                        <Node id="19" score="-0.0518066175282001">
                          <True/>
                        </Node>
                      </Node>
                    </Node>
                    <Node id="-22" score="0.0769903587572502">
                      <True/>
                      <Node id="20" score="0.110020344907587">
                        <SimplePredicate field="ENTAGE" operator="lessThan" value="37.5"/>
                      </Node>
                      <Node id="-23" score="-0.00701123408295891">
                        <True/>
                        <Node id="21" score="-0.0527755130421032">
                          <SimplePredicate field="FOLLOW" operator="lessThan" value="14.67488"/>
                        </Node>
                        <Node id="22" score="0.050420262596824">
                          <True/>
                        </Node>
                      </Node>
                    </Node>
                  </Node>
                  <Node id="-24" score="-0.0510956715729277">
                    <True/>
                    <Node id="-25" score="-0.0273766705555282">
                      <SimplePredicate field="ENTAGE" operator="lessThan" value="32.5"/>
                      <Node id="23" score="0.0438592831293742">
                        <SimplePredicate field="FOLLOW" operator="lessThan" value="15.98631"/>
                      </Node>
                      <Node id="-26" score="-0.040514010649461">
                        <True/>
                        <Node id="24" score="-0.0424354811134578">
                          <SimplePredicate field="ENTAGE" operator="lessThan" value="31.5"/>
                        </Node>
                        <Node id="25" score="0.0384247665819914">
                          <True/>
                        </Node>
                      </Node>
                    </Node>
                    <Node id="-27" score="-0.0571143674850464">
                      <True/>
                      <Node id="-28" score="-0.0646637587519417">
                        <SimplePredicate field="FOLLOW" operator="lessThan" value="20.4271"/>
                        <Node id="26" score="-0.0252295577967608">
                          <SimplePredicate field="ENTAGE" operator="lessThan" value="35.5"/>
                        </Node>
                        <Node id="27" score="-0.0517661150764017">
                          <True/>
                        </Node>
                      </Node>
                      <Node id="-29" score="-0.0436201660475249">
                        <True/>
                        <Node id="28" score="0.00689455132553543">
                          <SimplePredicate field="FOLLOW" operator="lessThan" value="21.22245"/>
                        </Node>
                        <Node id="29" score="-0.0450013843151408">
                          <True/>
                        </Node>
                      </Node>
                    </Node>
                  </Node>
                </Node>
                <Node id="-30" score="0.0265724999564035">
                  <True/>
                  <Node id="-31" score="-0.0824233337684914">
                    <SimplePredicate field="FOLLOW" operator="lessThan" value="16.35866"/>
                    <Node id="30" score="-0.052324425090443">
                      <SimplePredicate field="ENTAGE" operator="lessThan" value="45"/>
                    </Node>
                    <Node id="31" score="-0.0520626828074455">
                      <True/>
                    </Node>
                  </Node>
                  <Node id="-32" score="0.0782021054050379">
                    <True/>
                    <Node id="-33" score="0.127620053845783">
                      <SimplePredicate field="FOLLOW" operator="lessThan" value="24.48323"/>
                      <Node id="-34" score="0.196292564272881">
                        <SimplePredicate field="ENTAGE" operator="lessThan" value="49.5"/>
                        <Node id="32" score="0.0489241225378854">
                          <SimplePredicate field="ENTAGE" operator="lessThan" value="45.5"/>
                        </Node>
                        <Node id="33" score="0.143392660401084">
                          <True/>
                        </Node>
                      </Node>
                      <Node id="34" score="-0.0519114841114391">
                        <True/>
                      </Node>
                    </Node>
                    <Node id="35" score="-0.0519617753369468">
                      <True/>
                    </Node>
                  </Node>
                </Node>
              </Node>
            </Node>
          </Node>
        </TreeModel>
      </Segment>
      <Segment id="Tree4">
        <True/>
        <TreeModel modelName="Tree4" functionName="regression" algorithmName="MART" missingValueStrategy="none" splitCharacteristic="binarySplit">
          <MiningSchema>
            <MiningField name="ENTAGE" usageType="active"/>
            <MiningField name="FOLLOW" usageType="active"/>
            <MiningField name="PD" usageType="active"/>
            <MiningField name="FH" usageType="active"/>
          </MiningSchema>
          <Output>
            <OutputField name="Response4" optype="continuous" dataType="double" feature="predictedValue"/>
            <OutputField name="Node4" optype="categorical" dataType="integer" feature="entityId"/>
          </Output>
          <Node id="-1" score="-0.00415343089484707">
            <True/>
            <Node id="-2" score="0.338745925737464">
              <SimplePredicate field="FOLLOW" operator="lessThan" value="7.140315"/>
              <Node id="-3" score="0.27263777933003">
                <SimplePredicate field="FH" operator="lessThan" value="0.5"/>
                <Node id="-4" score="0.195586120381075">
                  <SimplePredicate field="PD" operator="lessThan" value="1.5"/>
                  <Node id="-5" score="0.316943804423014">
                    <SimplePredicate field="ENTAGE" operator="lessThan" value="47.5"/>
                    <Node id="1" score="0.0409689318566095">
                      <SimplePredicate field="ENTAGE" operator="lessThan" value="39.5"/>
                    </Node>
                    <Node id="-6" score="0.488694429397583">
                      <True/>
                      <Node id="2" score="0.120306152563829">
                        <SimplePredicate field="FOLLOW" operator="lessThan" value="4.412046"/>
                      </Node>
                      <Node id="3" score="0.0497937527569857">
                        <True/>
                      </Node>
                    </Node>
                  </Node>
                  <Node id="-7" score="-0.0418528136999711">
                    <True/>
                    <Node id="4" score="-0.0550182082436301">
                      <SimplePredicate field="ENTAGE" operator="lessThan" value="63.5"/>
                    </Node>
                    <Node id="5" score="0.0269826973477999">
                      <True/>
                    </Node>
                  </Node>
                </Node>
                <Node id="6" score="0.111244339209337">
                  <True/>
                </Node>
              </Node>
              <Node id="7" score="0.126381494782188">
                <True/>
              </Node>
            </Node>
            <Node id="-8" score="-0.0243757003392929">
              <True/>
              <Node id="-9" score="0.0429469956292046">
                <SimplePredicate field="FOLLOW" operator="lessThan" value="13.05133"/>
                <Node id="-10" score="0.0205462211515845">
                  <SimplePredicate field="PD" operator="lessThan" value="1.5"/>
                  <Node id="-11" score="0.045125370933896">
                    <SimplePredicate field="ENTAGE" operator="lessThan" value="50.5"/>
                    <Node id="-12" score="-0.0242342375501802">
                      <SimplePredicate field="ENTAGE" operator="lessThan" value="39.5"/>
                      <Node id="-13" score="-0.0435803252107957">
                        <SimplePredicate field="FOLLOW" operator="lessThan" value="12.58179"/>
                        <Node id="8" score="0.0395800173282623">
                          <SimplePredicate field="FOLLOW" operator="lessThan" value="9.798768"/>
                        </Node>
                        <Node id="9" score="-0.0518446498446994">
                          <True/>
                        </Node>
                      </Node>
                      <Node id="10" score="0.0576497966592962">
                        <True/>
                      </Node>
                    </Node>
                    <Node id="-14" score="0.0949381828308105">
                      <True/>
                      <Node id="-15" score="-0.000881216464898525">
                        <SimplePredicate field="FOLLOW" operator="lessThan" value="10.97331"/>
                        <Node id="11" score="0.111262053251266">
                          <SimplePredicate field="FOLLOW" operator="lessThan" value="9.051334"/>
                        </Node>
                        <Node id="12" score="-0.0527132793709084">
                          <True/>
                        </Node>
                      </Node>
                      <Node id="-16" score="0.147571375672246">
                        <True/>
                        <Node id="13" score="0.114946471320258">
                          <SimplePredicate field="FOLLOW" operator="lessThan" value="11.83025"/>
                        </Node>
                        <Node id="14" score="0.022183361378583">
                          <True/>
                        </Node>
                      </Node>
                    </Node>
                  </Node>
                  <Node id="15" score="-0.0515717288904023">
                    <True/>
                  </Node>
                </Node>
                <Node id="-17" score="0.272554934024811">
                  <True/>
                  <Node id="16" score="0.0939269524354201">
                    <SimplePredicate field="FOLLOW" operator="lessThan" value="10.85968"/>
                  </Node>
                  <Node id="17" score="0.0147552720525048">
                    <True/>
                  </Node>
                </Node>
              </Node>
              <Node id="-18" score="-0.0384664964306262">
                <True/>
                <Node id="-19" score="-0.0427418893842555">
                  <SimplePredicate field="PD" operator="lessThan" value="1.5"/>
                  <Node id="-20" score="-0.0220963511356088">
                    <SimplePredicate field="FOLLOW" operator="lessThan" value="14.52019"/>
                    <Node id="-21" score="-0.0422679445017939">
                      <SimplePredicate field="FOLLOW" operator="lessThan" value="14.41205"/>
                      <Node id="-22" score="-0.050771061111899">
                        <SimplePredicate field="ENTAGE" operator="lessThan" value="51.5"/>
                        <Node id="18" score="-0.014774162035722">
                          <SimplePredicate field="FOLLOW" operator="lessThan" value="13.44969"/>
                        </Node>
                        <Node id="19" score="-0.0516326943623651">
                          <True/>
                        </Node>
                      </Node>
                      <Node id="-23" score="0.00398901134729385">
                        <True/>
                        <Node id="20" score="-0.0520516889435904">
                          <SimplePredicate field="FOLLOW" operator="lessThan" value="13.84394"/>
                        </Node>
                        <Node id="21" score="0.0698868523944508">
                          <True/>
                        </Node>
                      </Node>
                    </Node>
                    <Node id="22" score="0.160289818590338">
                      <True/>
                    </Node>
                  </Node>
                  <Node id="-24" score="-0.0461761577908721">
                    <True/>
                    <Node id="-25" score="-0.108353623028459">
                      <SimplePredicate field="FOLLOW" operator="lessThan" value="14.84326"/>
                      <Node id="23" score="-0.0534310042858124">
                        <SimplePredicate field="ENTAGE" operator="lessThan" value="38.5"/>
                      </Node>
                      <Node id="24" score="-0.0526843772215002">
                        <True/>
                      </Node>
                    </Node>
                    <Node id="-26" score="-0.0443819833632132">
                      <True/>
                      <Node id="25" score="0.0666847987608476">
                        <SimplePredicate field="FOLLOW" operator="lessThan" value="14.92129"/>
                      </Node>
                      <Node id="-27" score="-0.0460008356412891">
                        <True/>
                        <Node id="26" score="-0.0169359498949193">
                          <SimplePredicate field="ENTAGE" operator="lessThan" value="32.5"/>
                        </Node>
                        <Node id="27" score="-0.0415176016385438">
                          <True/>
                        </Node>
                      </Node>
                    </Node>
                  </Node>
                </Node>
                <Node id="-28" score="0.0229159522624243">
                  <True/>
                  <Node id="28" score="0.0961125538899348">
                    <SimplePredicate field="ENTAGE" operator="lessThan" value="35.5"/>
                  </Node>
                  <Node id="-29" score="-0.00919485763764717">
                    <True/>
                    <Node id="-30" score="-0.050056857577825">
                      <SimplePredicate field="FH" operator="lessThan" value="0.5"/>
                      <Node id="29" score="0.0170263722538948">
                        <SimplePredicate field="FOLLOW" operator="lessThan" value="16.40383"/>
                      </Node>
                      <Node id="-31" score="-0.0883373358310797">
                        <True/>
                        <Node id="30" score="-0.0530419988291604">
                          <SimplePredicate field="FOLLOW" operator="lessThan" value="24.39562"/>
                        </Node>
                        <Node id="31" score="-0.0515710386362943">
                          <True/>
                        </Node>
                      </Node>
                    </Node>
                    <Node id="32" score="0.0740641206502914">
                      <True/>
                    </Node>
                  </Node>
                </Node>
              </Node>
            </Node>
          </Node>
        </TreeModel>
      </Segment>
      <Segment id="Tree5">
        <True/>
        <TreeModel modelName="Tree5" functionName="regression" algorithmName="MART" missingValueStrategy="none" splitCharacteristic="binarySplit">
          <MiningSchema>
            <MiningField name="ENTAGE" usageType="active"/>
            <MiningField name="FOLLOW" usageType="active"/>
            <MiningField name="PD" usageType="active"/>
            <MiningField name="FH" usageType="active"/>
          </MiningSchema>
          <Output>
            <OutputField name="Response5" optype="continuous" dataType="double" feature="predictedValue"/>
            <OutputField name="Node5" optype="categorical" dataType="integer" feature="entityId"/>
          </Output>
          <Node id="-1" score="-0.0041783675731816">
            <True/>
            <Node id="-2" score="0.314886270567428">
              <SimplePredicate field="FOLLOW" operator="lessThan" value="6.930869"/>
              <Node id="-3" score="0.245985560946994">
                <SimplePredicate field="FOLLOW" operator="lessThan" value="5.943874"/>
                <Node id="-4" score="0.340623449771962">
                  <SimplePredicate field="ENTAGE" operator="lessThan" value="47.5"/>
                  <Node id="-5" score="0.134383216500282">
                    <SimplePredicate field="ENTAGE" operator="lessThan" value="42.5"/>
                    <Node id="1" score="0.0668834107262748">
                      <SimplePredicate field="FOLLOW" operator="lessThan" value="3.774127"/>
                    </Node>
                    <Node id="2" score="-0.0211793265559457">
                      <True/>
                    </Node>
                  </Node>
                  <Node id="3" score="0.0883933226267497">
                    <True/>
                  </Node>
                </Node>
                <Node id="-6" score="0.0680663633346558">
                  <True/>
                  <Node id="4" score="-0.0546696611813137">
                    <SimplePredicate field="FOLLOW" operator="lessThan" value="4.097194"/>
                  </Node>
                  <Node id="5" score="0.0846234289082614">
                    <True/>
                  </Node>
                </Node>
              </Node>
              <Node id="6" score="0.133532004696982">
                <True/>
              </Node>
            </Node>
            <Node id="-7" score="-0.0217004364325473">
              <True/>
              <Node id="-8" score="-0.0295409999158829">
                <SimplePredicate field="PD" operator="lessThan" value="1.5"/>
                <Node id="-9" score="0.020581449492503">
                  <SimplePredicate field="FOLLOW" operator="lessThan" value="12.8104"/>
                  <Node id="-10" score="0.0467269034359042">
                    <SimplePredicate field="ENTAGE" operator="lessThan" value="50.5"/>
                    <Node id="-11" score="0.0302682882402001">
                      <SimplePredicate field="ENTAGE" operator="lessThan" value="47.5"/>
                      <Node id="-12" score="-0.0280522637897068">
                        <SimplePredicate field="FOLLOW" operator="lessThan" value="11.54415"/>
                        <Node id="7" score="0.0027190600595777">
                          <SimplePredicate field="FOLLOW" operator="lessThan" value="11.01848"/>
                        </Node>
                        <Node id="8" score="-0.0534024194434837">
                          <True/>
                        </Node>
                      </Node>
                      <Node id="-13" score="0.101198692579527">
                        <True/>
                        <Node id="9" score="-0.00431810848174557">
                          <SimplePredicate field="ENTAGE" operator="lessThan" value="39.5"/>
                        </Node>
                        <Node id="10" score="0.0662231057189232">
                          <True/>
                        </Node>
                      </Node>
                    </Node>
                    <Node id="11" score="0.0725717703501383">
                      <True/>
                    </Node>
                  </Node>
                  <Node id="-14" score="-0.0615244497332657">
                    <True/>
                    <Node id="12" score="-0.0535582845861262">
                      <SimplePredicate field="FOLLOW" operator="lessThan" value="8.970568"/>
                    </Node>
                    <Node id="13" score="-0.0514176928478739">
                      <True/>
                    </Node>
                  </Node>
                </Node>
                <Node id="-15" score="-0.0392288782868006">
                  <True/>
                  <Node id="-16" score="-0.0366377090288844">
                    <SimplePredicate field="ENTAGE" operator="lessThan" value="52.5"/>
                    <Node id="-17" score="-0.0399296613101663">
                      <SimplePredicate field="ENTAGE" operator="lessThan" value="51.5"/>
                      <Node id="-18" score="-0.0343915063574893">
                        <SimplePredicate field="FOLLOW" operator="lessThan" value="22.01506"/>
                        <Node id="14" score="-0.0311172169683141">
                          <SimplePredicate field="FOLLOW" operator="lessThan" value="21.82615"/>
                        </Node>
                        <Node id="15" score="0.225957870483398">
                          <True/>
                        </Node>
                      </Node>
                      <Node id="-19" score="-0.0614147356578282">
                        <True/>
                        <Node id="16" score="-0.0518252622513544">
                          <SimplePredicate field="ENTAGE" operator="lessThan" value="32.5"/>
                        </Node>
                        <Node id="17" score="-0.0515213249633031">
                          <True/>
                        </Node>
                      </Node>
                    </Node>
                    <Node id="18" score="0.165919256210327">
                      <True/>
                    </Node>
                  </Node>
                  <Node id="-20" score="-0.0646361080946121">
                    <True/>
                    <Node id="-21" score="-0.0798312389489376">
                      <SimplePredicate field="FOLLOW" operator="lessThan" value="14.89802"/>
                      <Node id="19" score="-0.0526841112545558">
                        <SimplePredicate field="ENTAGE" operator="lessThan" value="59.5"/>
                      </Node>
                      <Node id="20" score="-0.0517918718488593">
                        <True/>
                      </Node>
                    </Node>
                    <Node id="-22" score="-0.0583681166172028">
                      <True/>
                      <Node id="-23" score="-0.0567863069731614">
                        <SimplePredicate field="FOLLOW" operator="lessThan" value="20.41615"/>
                        <Node id="21" score="-0.0514464272393121">
                          <SimplePredicate field="FOLLOW" operator="lessThan" value="18.49418"/>
                        </Node>
                        <Node id="22" score="-0.0515184860963088">
                          <True/>
                        </Node>
                      </Node>
                      <Node id="-24" score="-0.0625383420424028">
                        <True/>
                        <Node id="23" score="-0.0517232255502181">
                          <SimplePredicate field="FOLLOW" operator="lessThan" value="23.44559"/>
                        </Node>
                        <Node id="24" score="-0.0515213283625516">
                          <True/>
                        </Node>
                      </Node>
                    </Node>
                  </Node>
                </Node>
              </Node>
              <Node id="-25" score="0.0831041423552627">
                <True/>
                <Node id="25" score="0.0866329159055437">
                  <SimplePredicate field="FOLLOW" operator="lessThan" value="10.85968"/>
                </Node>
                <Node id="-26" score="0.0216941908786171">
                  <True/>
                  <Node id="-27" score="-0.016915098021302">
                    <SimplePredicate field="FH" operator="lessThan" value="0.5"/>
                    <Node id="26" score="0.0808244297901789">
                      <SimplePredicate field="ENTAGE" operator="lessThan" value="35.5"/>
                    </Node>
                    <Node id="-28" score="-0.0558077399410419">
                      <True/>
                      <Node id="-29" score="-0.089827992699363">
                        <SimplePredicate field="ENTAGE" operator="lessThan" value="47.5"/>
                        <Node id="27" score="-0.0519668459892273">
                          <SimplePredicate field="ENTAGE" operator="lessThan" value="44.5"/>
                        </Node>
                        <Node id="28" score="-0.0538902649512658">
                          <True/>
                        </Node>
                      </Node>
                      <Node id="-30" score="-0.0227880793459275">
                        <True/>
                        <Node id="29" score="0.0292930837188448">
                          <SimplePredicate field="ENTAGE" operator="lessThan" value="50.5"/>
                        </Node>
                        <Node id="30" score="-0.052042543888092">
                          <True/>
                        </Node>
                      </Node>
                    </Node>
                  </Node>
                  <Node id="31" score="0.0722701102495193">
                    <True/>
                  </Node>
                </Node>
              </Node>
            </Node>
          </Node>
        </TreeModel>
      </Segment>
      <Segment id="Tree6">
        <True/>
        <TreeModel modelName="Tree6" functionName="regression" algorithmName="MART" missingValueStrategy="none" splitCharacteristic="binarySplit">
          <MiningSchema>
            <MiningField name="ENTAGE" usageType="active"/>
            <MiningField name="FOLLOW" usageType="active"/>
            <MiningField name="PD" usageType="active"/>
            <MiningField name="FH" usageType="active"/>
          </MiningSchema>
          <Output>
            <OutputField name="Response6" optype="continuous" dataType="double" feature="predictedValue"/>
            <OutputField name="Node6" optype="categorical" dataType="integer" feature="entityId"/>
          </Output>
          <Node id="-1" score="-0.00416634359890843">
            <True/>
            <Node id="-2" score="0.281577531681504">
              <SimplePredicate field="FOLLOW" operator="lessThan" value="6.930869"/>
              <Node id="-3" score="0.220167544153002">
                <SimplePredicate field="FOLLOW" operator="lessThan" value="5.943874"/>
                <Node id="-4" score="0.305341071270882">
                  <SimplePredicate field="ENTAGE" operator="lessThan" value="47.5"/>
                  <Node id="-5" score="0.120046578347683">
                    <SimplePredicate field="ENTAGE" operator="lessThan" value="42.5"/>
                    <Node id="1" score="0.0542896191279093">
                      <SimplePredicate field="FOLLOW" operator="lessThan" value="3.774127"/>
                    </Node>
                    <Node id="2" score="-0.01963517611677">
                      <True/>
                    </Node>
                  </Node>
                  <Node id="3" score="0.0757876793543498">
                    <True/>
                  </Node>
                </Node>
                <Node id="-6" score="0.0600413274765015">
                  <True/>
                  <Node id="4" score="-0.0542018285819462">
                    <SimplePredicate field="FOLLOW" operator="lessThan" value="4.097194"/>
                  </Node>
                  <Node id="5" score="0.0671294873411005">
                    <True/>
                  </Node>
                </Node>
              </Node>
              <Node id="6" score="0.103971907070705">
                <True/>
              </Node>
            </Node>
            <Node id="-7" score="-0.0198585356789074">
              <True/>
              <Node id="-8" score="0.0410837926784483">
                <SimplePredicate field="FOLLOW" operator="lessThan" value="12.59411"/>
                <Node id="-9" score="0.0198991254929009">
                  <SimplePredicate field="PD" operator="lessThan" value="1.5"/>
                  <Node id="-10" score="-0.0153395666492929">
                    <SimplePredicate field="FOLLOW" operator="lessThan" value="11.55236"/>
                    <Node id="-11" score="-0.105098819732666">
                      <SimplePredicate field="FOLLOW" operator="lessThan" value="8.488707"/>
                      <Node id="7" score="-0.0536746274341236">
                        <SimplePredicate field="FOLLOW" operator="lessThan" value="7.285421"/>
                      </Node>
                      <Node id="8" score="-0.0528364522116525">
                        <True/>
                      </Node>
                    </Node>
                    <Node id="-12" score="0.00434447929524539">
                      <True/>
                      <Node id="9" score="0.160364530303262">
                        <SimplePredicate field="FOLLOW" operator="lessThan" value="9.392197"/>
                      </Node>
                      <Node id="-13" score="-0.0243729341377332">
                        <True/>
                        <Node id="10" score="-0.000561151555494258">
                          <SimplePredicate field="FOLLOW" operator="lessThan" value="11.13895"/>
                        </Node>
                        <Node id="11" score="-0.0530286762449476">
                          <True/>
                        </Node>
                      </Node>
                    </Node>
                  </Node>
                  <Node id="-14" score="0.0819013812873937">
                    <True/>
                    <Node id="12" score="0.0904989866983323">
                      <SimplePredicate field="FOLLOW" operator="lessThan" value="11.77002"/>
                    </Node>
                    <Node id="-15" score="0.0263362670766896">
                      <True/>
                      <Node id="-16" score="0.0971674859523773">
                        <SimplePredicate field="ENTAGE" operator="lessThan" value="45.5"/>
                        <Node id="13" score="0.0193799619491284">
                          <SimplePredicate field="FOLLOW" operator="lessThan" value="12.36277"/>
                        </Node>
                        <Node id="14" score="0.125658052308219">
                          <True/>
                        </Node>
                      </Node>
                      <Node id="15" score="-0.055874764919281">
                        <True/>
                      </Node>
                    </Node>
                  </Node>
                </Node>
                <Node id="16" score="0.0519899129867554">
                  <True/>
                </Node>
              </Node>
              <Node id="-17" score="-0.03078043029969">
                <True/>
                <Node id="-18" score="-0.03510174200937">
                  <SimplePredicate field="PD" operator="lessThan" value="1.5"/>
                  <Node id="17" score="-0.0538803537686666">
                    <SimplePredicate field="FOLLOW" operator="lessThan" value="12.79671"/>
                  </Node>
                  <Node id="-19" score="-0.0342051998462552">
                    <True/>
                    <Node id="18" score="0.0500314506617459">
                      <SimplePredicate field="FOLLOW" operator="lessThan" value="12.94045"/>
                    </Node>
                    <Node id="-20" score="-0.0353139797125783">
                      <True/>
                      <Node id="-21" score="-0.0329653295111959">
                        <SimplePredicate field="ENTAGE" operator="lessThan" value="52.5"/>
                        <Node id="19" score="-0.030993864310369">
                          <SimplePredicate field="ENTAGE" operator="lessThan" value="51.5"/>
                        </Node>
                        <Node id="20" score="0.107980259259542">
                          <True/>
                        </Node>
                      </Node>
                      <Node id="-22" score="-0.0586312268231366">
                        <True/>
                        <Node id="21" score="-0.052077054977417">
                          <SimplePredicate field="FOLLOW" operator="lessThan" value="14.83915"/>
                        </Node>
                        <Node id="22" score="-0.0513672239986467">
                          <True/>
                        </Node>
                      </Node>
                    </Node>
                  </Node>
                </Node>
                <Node id="-23" score="0.0293780391135912">
                  <True/>
                  <Node id="-24" score="-0.007294083769257">
                    <SimplePredicate field="FH" operator="lessThan" value="0.5"/>
                    <Node id="23" score="0.0628841867049535">
                      <SimplePredicate field="ENTAGE" operator="lessThan" value="35.5"/>
                    </Node>
                    <Node id="-25" score="-0.0433051355423466">
                      <True/>
                      <Node id="-26" score="0.0113847074301346">
                        <SimplePredicate field="FOLLOW" operator="lessThan" value="16.40383"/>
                        <Node id="24" score="0.0674028071490201">
                          <SimplePredicate field="ENTAGE" operator="lessThan" value="50.5"/>
                        </Node>
                        <Node id="25" score="-0.0519154618183772">
                          <True/>
                        </Node>
                      </Node>
                      <Node id="-27" score="-0.0755581183311267">
                        <True/>
                        <Node id="26" score="-0.0526385775634221">
                          <SimplePredicate field="FOLLOW" operator="lessThan" value="24.39562"/>
                        </Node>
                        <Node id="27" score="-0.0513665459372781">
                          <True/>
                        </Node>
                      </Node>
                    </Node>
                  </Node>
                  <Node id="28" score="0.062420650323232">
                    <True/>
                  </Node>
                </Node>
              </Node>
            </Node>
          </Node>
        </TreeModel>
      </Segment>
      <Segment id="Tree7">
        <True/>
        <TreeModel modelName="Tree7" functionName="regression" algorithmName="MART" missingValueStrategy="none" splitCharacteristic="binarySplit">
          <MiningSchema>
            <MiningField name="ENTAGE" usageType="active"/>
            <MiningField name="FOLLOW" usageType="active"/>
            <MiningField name="PD" usageType="active"/>
            <MiningField name="FH" usageType="active"/>
          </MiningSchema>
          <Output>
            <OutputField name="Response7" optype="continuous" dataType="double" feature="predictedValue"/>
            <OutputField name="Node7" optype="categorical" dataType="integer" feature="entityId"/>
          </Output>
          <Node id="-1" score="-0.00405387324224661">
            <True/>
            <Node id="-2" score="0.244375726451044">
              <SimplePredicate field="FOLLOW" operator="lessThan" value="7.140315"/>
              <Node id="-3" score="0.189524391551077">
                <SimplePredicate field="FH" operator="lessThan" value="0.5"/>
                <Node id="-4" score="0.132309661192053">
                  <SimplePredicate field="PD" operator="lessThan" value="1.5"/>
                  <Node id="-5" score="0.227183935377333">
                    <SimplePredicate field="ENTAGE" operator="lessThan" value="47.5"/>
                    <Node id="-6" score="0.352304352654351">
                      <SimplePredicate field="FOLLOW" operator="lessThan" value="4.412046"/>
                      <Node id="1" score="0.0241596437990665">
                        <SimplePredicate field="FOLLOW" operator="lessThan" value="2.36961"/>
                      </Node>
                      <Node id="2" score="0.0984947789799083">
                        <True/>
                      </Node>
                    </Node>
                    <Node id="3" score="0.00848868903186586">
                      <True/>
                    </Node>
                  </Node>
                  <Node id="-7" score="-0.05331391873567">
                    <True/>
                    <Node id="4" score="-0.0549433881586248">
                      <SimplePredicate field="ENTAGE" operator="lessThan" value="63.5"/>
                    </Node>
                    <Node id="5" score="0.0194877299169699">
                      <True/>
                    </Node>
                  </Node>
                </Node>
                <Node id="6" score="0.0646676146067106">
                  <True/>
                </Node>
              </Node>
              <Node id="7" score="0.085771381855011">
                <True/>
              </Node>
            </Node>
            <Node id="-8" score="-0.0187048496344151">
              <True/>
              <Node id="-9" score="0.0338048051143515">
                <SimplePredicate field="FOLLOW" operator="lessThan" value="12.59411"/>
                <Node id="-10" score="-0.113954804160378">
                  <SimplePredicate field="FOLLOW" operator="lessThan" value="8.488707"/>
                  <Node id="8" score="-0.0573729330843145">
                    <SimplePredicate field="FOLLOW" operator="lessThan" value="7.523614"/>
                  </Node>
                  <Node id="9" score="-0.052692483771931">
                    <True/>
                  </Node>
                </Node>
                <Node id="-11" score="0.0492843854995001">
                  <True/>
                  <Node id="10" score="0.160199046134949">
                    <SimplePredicate field="FOLLOW" operator="lessThan" value="9.373033"/>
                  </Node>
                  <Node id="-12" score="0.0295422688201444">
                    <True/>
                    <Node id="-13" score="0.0550903716644683">
                      <SimplePredicate field="ENTAGE" operator="lessThan" value="50.5"/>
                      <Node id="-14" score="0.0151432816471372">
                        <SimplePredicate field="ENTAGE" operator="lessThan" value="44.5"/>
                        <Node id="11" score="-0.0103587888099335">
                          <SimplePredicate field="FOLLOW" operator="lessThan" value="12.20945"/>
                        </Node>
                        <Node id="12" score="0.07699944291796">
                          <True/>
                        </Node>
                      </Node>
                      <Node id="-15" score="0.161615950720651">
                        <True/>
                        <Node id="13" score="0.0663996770464141">
                          <SimplePredicate field="FOLLOW" operator="lessThan" value="11.83025"/>
                        </Node>
                        <Node id="14" score="-0.0126248529324165">
                          <True/>
                        </Node>
                      </Node>
                    </Node>
                    <Node id="-16" score="-0.0578890217675103">
                      <True/>
                      <Node id="-17" score="-0.0511878687759926">
                        <SimplePredicate field="ENTAGE" operator="lessThan" value="63.5"/>
                        <Node id="15" score="-0.051480552979878">
                          <SimplePredicate field="ENTAGE" operator="lessThan" value="55.5"/>
                        </Node>
                        <Node id="16" score="-0.0512781977653503">
                          <True/>
                        </Node>
                      </Node>
                      <Node id="17" score="-0.0529194287955761">
                        <True/>
                      </Node>
                    </Node>
                  </Node>
                </Node>
              </Node>
              <Node id="-18" score="-0.0278782241315727">
                <True/>
                <Node id="-19" score="-0.0317380041533463">
                  <SimplePredicate field="PD" operator="lessThan" value="1.5"/>
                  <Node id="18" score="-0.0535014828046163">
                    <SimplePredicate field="FOLLOW" operator="lessThan" value="12.79671"/>
                  </Node>
                  <Node id="-20" score="-0.0309269256841124">
                    <True/>
                    <Node id="19" score="0.0410466871478341">
                      <SimplePredicate field="FOLLOW" operator="lessThan" value="12.94045"/>
                    </Node>
                    <Node id="-21" score="-0.0319225094284976">
                      <True/>
                      <Node id="-22" score="-0.0215288424491882">
                        <SimplePredicate field="ENTAGE" operator="lessThan" value="37.5"/>
                        <Node id="20" score="-0.0367375122004257">
                          <SimplePredicate field="PD" operator="lessThan" value="0.5"/>
                        </Node>
                        <Node id="21" score="0.00581195156955155">
                          <True/>
                        </Node>
                      </Node>
                      <Node id="-23" score="-0.0370362458927018">
                        <True/>
                        <Node id="22" score="-0.00613990935840105">
                          <SimplePredicate field="FOLLOW" operator="lessThan" value="13.84942"/>
                        </Node>
                        <Node id="23" score="-0.038436555797727">
                          <True/>
                        </Node>
                      </Node>
                    </Node>
                  </Node>
                </Node>
                <Node id="-24" score="0.0258551340424613">
                  <True/>
                  <Node id="-25" score="-0.00705635708731574">
                    <SimplePredicate field="FH" operator="lessThan" value="0.5"/>
                    <Node id="24" score="0.0506775130828222">
                      <SimplePredicate field="ENTAGE" operator="lessThan" value="35.5"/>
                    </Node>
                    <Node id="-26" score="-0.0393736631639542">
                      <True/>
                      <Node id="-27" score="0.00976392821125362">
                        <SimplePredicate field="FOLLOW" operator="lessThan" value="16.40383"/>
                        <Node id="25" score="-0.0518239984909693">
                          <SimplePredicate field="FOLLOW" operator="lessThan" value="15.01164"/>
                        </Node>
                        <Node id="26" score="0.0584584420377558">
                          <True/>
                        </Node>
                      </Node>
                      <Node id="-28" score="-0.0683522407825177">
                        <True/>
                        <Node id="27" score="-0.052379310131073">
                          <SimplePredicate field="FOLLOW" operator="lessThan" value="24.39562"/>
                        </Node>
                        <Node id="28" score="-0.0512331669980829">
                          <True/>
                        </Node>
                      </Node>
                    </Node>
                  </Node>
                  <Node id="29" score="0.0507637937863668">
                    <True/>
                  </Node>
                </Node>
              </Node>
            </Node>
          </Node>
        </TreeModel>
      </Segment>
      <Segment id="Tree8">
        <True/>
        <TreeModel modelName="Tree8" functionName="regression" algorithmName="MART" missingValueStrategy="none" splitCharacteristic="binarySplit">
          <MiningSchema>
            <MiningField name="ENTAGE" usageType="active"/>
            <MiningField name="FOLLOW" usageType="active"/>
            <MiningField name="PD" usageType="active"/>
            <MiningField name="FH" usageType="active"/>
          </MiningSchema>
          <Output>
            <OutputField name="Response8" optype="continuous" dataType="double" feature="predictedValue"/>
            <OutputField name="Node8" optype="categorical" dataType="integer" feature="entityId"/>
          </Output>
          <Node id="-1" score="-0.00389165451105224">
            <True/>
            <Node id="-2" score="0.219238612962806">
              <SimplePredicate field="FOLLOW" operator="lessThan" value="7.140315"/>
              <Node id="-3" score="0.169963966181249">
                <SimplePredicate field="FH" operator="lessThan" value="0.5"/>
                <Node id="-4" score="0.118542867548325">
                  <SimplePredicate field="PD" operator="lessThan" value="1.5"/>
                  <Node id="-5" score="0.203846401638455">
                    <SimplePredicate field="ENTAGE" operator="lessThan" value="47.5"/>
                    <Node id="1" score="-0.00542479237684837">
                      <SimplePredicate field="ENTAGE" operator="lessThan" value="37.5"/>
                    </Node>
                    <Node id="-6" score="0.293479442596436">
                      <True/>
                      <Node id="2" score="0.0060610832138495">
                        <SimplePredicate field="FOLLOW" operator="lessThan" value="2.324435"/>
                      </Node>
                      <Node id="3" score="0.063031378246489">
                        <True/>
                      </Node>
                    </Node>
                  </Node>
                  <Node id="-7" score="-0.048355335774629">
                    <True/>
                    <Node id="4" score="-0.0544328093528748">
                      <SimplePredicate field="ENTAGE" operator="lessThan" value="63.5"/>
                    </Node>
                    <Node id="5" score="0.0169511598845323">
                      <True/>
                    </Node>
                  </Node>
                </Node>
                <Node id="6" score="0.0558620920548072">
                  <True/>
                </Node>
              </Node>
              <Node id="7" score="0.0739865790713917">
                <True/>
              </Node>
            </Node>
            <Node id="-8" score="-0.01705061961443">
              <True/>
              <Node id="-9" score="0.0258614010281033">
                <SimplePredicate field="FOLLOW" operator="lessThan" value="13.05133"/>
                <Node id="-10" score="0.0111400196629186">
                  <SimplePredicate field="FH" operator="lessThan" value="0.5"/>
                  <Node id="-11" score="0.0374572535923549">
                    <SimplePredicate field="ENTAGE" operator="lessThan" value="48.5"/>
                    <Node id="-12" score="0.0125434349323141">
                      <SimplePredicate field="ENTAGE" operator="lessThan" value="45.5"/>
                      <Node id="-13" score="0.032108119696625">
                        <SimplePredicate field="FOLLOW" operator="lessThan" value="12.59411"/>
                        <Node id="8" score="-0.00233840669995995">
                          <SimplePredicate field="FOLLOW" operator="lessThan" value="12.10267"/>
                        </Node>
                        <Node id="9" score="0.0635692775249481">
                          <True/>
                        </Node>
                      </Node>
                      <Node id="-14" score="-0.0860951840877533">
                        <True/>
                        <Node id="10" score="-0.052215317885081">
                          <SimplePredicate field="FOLLOW" operator="lessThan" value="12.8104"/>
                        </Node>
                        <Node id="11" score="-0.0523760418097178">
                          <True/>
                        </Node>
                      </Node>
                    </Node>
                    <Node id="-15" score="0.157874043782552">
                      <True/>
                      <Node id="12" score="0.0737558305263519">
                        <SimplePredicate field="FOLLOW" operator="lessThan" value="10.72279"/>
                      </Node>
                      <Node id="13" score="0.0193246437443627">
                        <True/>
                      </Node>
                    </Node>
                  </Node>
                  <Node id="-16" score="-0.051949239756963">
                    <True/>
                    <Node id="-17" score="-0.00467293957869212">
                      <SimplePredicate field="PD" operator="lessThan" value="0.5"/>
                      <Node id="14" score="-0.0517417945359883">
                        <SimplePredicate field="FOLLOW" operator="lessThan" value="11.08008"/>
                      </Node>
                      <Node id="15" score="0.0492507165128534">
                        <True/>
                      </Node>
                    </Node>
                    <Node id="-18" score="-0.0849327043045399">
                      <True/>
                      <Node id="16" score="-0.0555356557552631">
                        <SimplePredicate field="ENTAGE" operator="lessThan" value="52.5"/>
                      </Node>
                      <Node id="-19" score="-0.0571688969930013">
                        <True/>
                        <Node id="17" score="-0.0511258281767368">
                          <SimplePredicate field="ENTAGE" operator="lessThan" value="63"/>
                        </Node>
                        <Node id="18" score="-0.0527716619627816">
                          <True/>
                        </Node>
                      </Node>
                    </Node>
                  </Node>
                </Node>
                <Node id="-20" score="0.19181151823564">
                  <True/>
                  <Node id="19" score="-0.0579418214884671">
                    <SimplePredicate field="ENTAGE" operator="lessThan" value="43"/>
                  </Node>
                  <Node id="20" score="0.15286566994407">
                    <True/>
                  </Node>
                </Node>
              </Node>
              <Node id="-21" score="-0.0260322038517442">
                <True/>
                <Node id="-22" score="-0.0285743947448224">
                  <SimplePredicate field="PD" operator="lessThan" value="1.5"/>
                  <Node id="-23" score="-0.0117200595404714">
                    <SimplePredicate field="FOLLOW" operator="lessThan" value="14.85284"/>
                    <Node id="-24" score="-0.0315050882451674">
                      <SimplePredicate field="FOLLOW" operator="lessThan" value="14.47502"/>
                      <Node id="-25" score="-0.0160666175724305">
                        <SimplePredicate field="FOLLOW" operator="lessThan" value="13.84942"/>
                        <Node id="21" score="-0.0515324706616609">
                          <SimplePredicate field="FOLLOW" operator="lessThan" value="13.43737"/>
                        </Node>
                        <Node id="22" score="0.0209229319703345">
                          <True/>
                        </Node>
                      </Node>
                      <Node id="-26" score="-0.0520192205089412">
                        <True/>
                        <Node id="23" score="-0.05127558942701">
                          <SimplePredicate field="ENTAGE" operator="lessThan" value="52"/>
                        </Node>
                        <Node id="24" score="-0.0519206921259562">
                          <True/>
                        </Node>
                      </Node>
                    </Node>
                    <Node id="-27" score="0.090202808380127">
                      <True/>
                      <Node id="25" score="0.129413518038663">
                        <SimplePredicate field="FOLLOW" operator="lessThan" value="14.62423"/>
                      </Node>
                      <Node id="-28" score="0.00685117732394825">
                        <True/>
                        <Node id="26" score="-0.0524345582181757">
                          <SimplePredicate field="ENTAGE" operator="lessThan" value="38.5"/>
                        </Node>
                        <Node id="27" score="0.0650837367231196">
                          <True/>
                        </Node>
                      </Node>
                    </Node>
                  </Node>
                  <Node id="-29" score="-0.031985590013407">
                    <True/>
                    <Node id="-30" score="-0.0125163822925737">
                      <SimplePredicate field="ENTAGE" operator="lessThan" value="32.5"/>
                      <Node id="28" score="0.0511044150307065">
                        <SimplePredicate field="FOLLOW" operator="lessThan" value="15.98631"/>
                      </Node>
                      <Node id="-31" score="-0.0247970858773032">
                        <True/>
                        <Node id="29" score="-0.0390485307705477">
                          <SimplePredicate field="ENTAGE" operator="lessThan" value="31.5"/>
                        </Node>
                        <Node id="30" score="0.0444136754326198">
                          <True/>
                        </Node>
                      </Node>
                    </Node>
                    <Node id="-32" score="-0.0369259023666382">
                      <True/>
                      <Node id="-33" score="-0.0442323182758532">
                        <SimplePredicate field="FOLLOW" operator="lessThan" value="20.4271"/>
                        <Node id="31" score="-0.0163660888318662">
                          <SimplePredicate field="ENTAGE" operator="lessThan" value="35.5"/>
                        </Node>
                        <Node id="32" score="-0.0512348623836742">
                          <True/>
                        </Node>
                      </Node>
                      <Node id="-34" score="-0.0238660021526058">
                        <True/>
                        <Node id="33" score="0.105485417626121">
                          <SimplePredicate field="FOLLOW" operator="lessThan" value="20.54346"/>
                        </Node>
                        <Node id="34" score="-0.0296529997950015">
                          <True/>
                        </Node>
                      </Node>
                    </Node>
                  </Node>
                </Node>
                <Node id="-35" score="0.0104663939703078">
                  <True/>
                  <Node id="-36" score="-0.0924508836534288">
                    <SimplePredicate field="FOLLOW" operator="lessThan" value="16.35866"/>
                    <Node id="35" score="-0.0532492677370707">
                      <SimplePredicate field="ENTAGE" operator="lessThan" value="48.5"/>
                    </Node>
                    <Node id="36" score="-0.0520826627810796">
                      <True/>
                    </Node>
                  </Node>
                  <Node id="-37" score="0.0592166833710252">
                    <True/>
                    <Node id="-38" score="0.129656207176947">
                      <SimplePredicate field="FOLLOW" operator="lessThan" value="21.57153"/>
                      <Node id="37" score="-0.00397719267536612">
                        <SimplePredicate field="ENTAGE" operator="lessThan" value="47.5"/>
                      </Node>
                      <Node id="38" score="0.12907304082598">
                        <True/>
                      </Node>
                    </Node>
                    <Node id="-39" score="-0.0247688981202933">
                      <True/>
                      <Node id="39" score="-0.0558889670805498">
                        <SimplePredicate field="FOLLOW" operator="lessThan" value="24.22177"/>
                      </Node>
                      <Node id="40" score="0.0394831299781799">
                        <True/>
                      </Node>
                    </Node>
                  </Node>
                </Node>
              </Node>
            </Node>
          </Node>
        </TreeModel>
      </Segment>
      <Segment id="Final">
        <True/>
        <RegressionModel modelName="Final" algorithmName="MART" functionName="classification" normalizationMethod="logit">
          <MiningSchema>
            <MiningField name="FATE" usageType="predicted"/>
            <MiningField name="Response1" usageType="active"/>
            <MiningField name="Response2" usageType="active"/>
            <MiningField name="Response3" usageType="active"/>
            <MiningField name="Response4" usageType="active"/>
            <MiningField name="Response5" usageType="active"/>
            <MiningField name="Response6" usageType="active"/>
            <MiningField name="Response7" usageType="active"/>
            <MiningField name="Response8" usageType="active"/>
            <!--If an INIT variable is to be used, then uncomment the element below and change the variable name.-->
            <!--MiningField name='init' usageType='active'-->
          </MiningSchema>
          <RegressionTable intercept="0" targetCategory="1">
            <!--If an INIT variable is used, then uncomment the following element and change the variable name-->
            <!--NumericPredictor name='init' coefficient='1'-->
            <NumericPredictor name="Response1" coefficient="2"/>
            <NumericPredictor name="Response2" coefficient="2"/>
            <NumericPredictor name="Response3" coefficient="2"/>
            <NumericPredictor name="Response4" coefficient="2"/>
            <NumericPredictor name="Response5" coefficient="2"/>
            <NumericPredictor name="Response6" coefficient="2"/>
            <NumericPredictor name="Response7" coefficient="2"/>
            <NumericPredictor name="Response8" coefficient="2"/>
          </RegressionTable>
          <RegressionTable intercept="0.0" targetCategory="0"/>
        </RegressionModel>
      </Segment>
    </Segmentation>
  </MiningModel>
</PMML>

