<?xml version="1.0"?>
<PMML version="4.3" xmlns="http://www.dmg.org/PMML-4_3" xmlns:xsi="http://www.w3.org/2001/XMLSchema-instance">
  <Header description="TreeNet Model">
    <Application name="SPM" version="8.3.0.002"/>
    <Timestamp>2020-01-20T19:33:12</Timestamp>
  </Header>
  <DataDictionary numberOfFields="18">
    <DataField name="GENERGY" optype="continuous" dataType="double"/>
    <DataField name="GPULS" optype="continuous" dataType="double"/>
    <DataField name="GDENERGY" optype="continuous" dataType="double"/>
    <DataField name="GDPULS" optype="continuous" dataType="double"/>
    <DataField name="NBUMPS" optype="continuous" dataType="double"/>
    <DataField name="NBUMPS2" optype="continuous" dataType="double"/>
    <DataField name="NBUMPS3" optype="continuous" dataType="double"/>
    <DataField name="NBUMPS4" optype="continuous" dataType="double"/>
    <DataField name="ENERGY" optype="continuous" dataType="double"/>
    <DataField name="MAXENERGY" optype="continuous" dataType="double"/>
    <DataField name="CLASS" optype="categorical" dataType="integer">
      <Value value="0" property="valid"/>
      <Value value="1" property="valid"/>
    </DataField>
    <DataField name="SEISMOACOUSTIC_A" optype="continuous" dataType="double"/>
    <DataField name="SEISMOACOUSTIC_B" optype="continuous" dataType="double"/>
    <DataField name="SEISMOACOUSTIC_C" optype="continuous" dataType="double"/>
    <DataField name="GHAZARD_A" optype="continuous" dataType="double"/>
    <DataField name="GHAZARD_B" optype="continuous" dataType="double"/>
    <DataField name="SEISMIC_A" optype="continuous" dataType="double"/>
    <DataField name="SEISMIC_B" optype="continuous" dataType="double"/>
    <!--If an INIT variable was used to develop this model, then uncomment the following element and change the variable name to the one actually used (and increment numberOfFields).  You will also need to uncomment the appropriate elements in the mining schema and in the final regression.-->
    <!--DataField name='init' displayName='TreeNet initialization variable' optype='continuous' dataType='double'-->
  </DataDictionary>
  <MiningModel modelName="TreeNet_1" functionName="classification" algorithmName="MART">
    <MiningSchema>
      <MiningField name="CLASS" usageType="predicted" invalidValueTreatment="asMissing" missingValueTreatment="asIs"/>
      <MiningField name="GENERGY" usageType="active" importance="1" invalidValueTreatment="asMissing" missingValueTreatment="asMedian" missingValueReplacement="26210"/>
      <MiningField name="GPULS" usageType="active" importance="0.92637119076218" invalidValueTreatment="asMissing" missingValueTreatment="asMedian" missingValueReplacement="387"/>
      <MiningField name="GDENERGY" usageType="active" importance="0.903605041064564" invalidValueTreatment="asMissing" missingValueTreatment="asMedian" missingValueReplacement="-7"/>
      <MiningField name="GDPULS" usageType="active" importance="0.630362291461173" invalidValueTreatment="asMissing" missingValueTreatment="asMedian" missingValueReplacement="-6"/>
      <MiningField name="NBUMPS" usageType="active" importance="0.807923715004532" invalidValueTreatment="asMissing" missingValueTreatment="asMedian" missingValueReplacement="0"/>
      <MiningField name="NBUMPS2" usageType="active" importance="0.354371163807658" invalidValueTreatment="asMissing" missingValueTreatment="asMedian" missingValueReplacement="0"/>
      <MiningField name="NBUMPS3" usageType="active" importance="0.436088687679638" invalidValueTreatment="asMissing" missingValueTreatment="asMedian" missingValueReplacement="0"/>
      <MiningField name="NBUMPS4" usageType="active" importance="0.118131351636896" invalidValueTreatment="asMissing" missingValueTreatment="asMedian" missingValueReplacement="0"/>
      <MiningField name="ENERGY" usageType="active" importance="0.745658520088773" invalidValueTreatment="asMissing" missingValueTreatment="asMedian" missingValueReplacement="0"/>
      <MiningField name="MAXENERGY" usageType="active" importance="0.320761514654695" invalidValueTreatment="asMissing" missingValueTreatment="asMedian" missingValueReplacement="0"/>
      <MiningField name="SEISMOACOUSTIC_A" usageType="active" importance="0.156961877834947" invalidValueTreatment="asMissing" missingValueTreatment="asMedian" missingValueReplacement="1"/>
      <MiningField name="SEISMOACOUSTIC_B" usageType="active" importance="0.188203905516291" invalidValueTreatment="asMissing" missingValueTreatment="asMedian" missingValueReplacement="0"/>
      <MiningField name="SEISMOACOUSTIC_C" usageType="active" importance="1.70970713612939e-05" invalidValueTreatment="asMissing" missingValueTreatment="asMedian" missingValueReplacement="0"/>
      <MiningField name="GHAZARD_A" usageType="active" importance="0.21023100421505" invalidValueTreatment="asMissing" missingValueTreatment="asMedian" missingValueReplacement="1"/>
      <MiningField name="GHAZARD_B" usageType="active" importance="0.136461206900406" invalidValueTreatment="asMissing" missingValueTreatment="asMedian" missingValueReplacement="0"/>
      <MiningField name="SEISMIC_A" usageType="active" importance="0.153503118373048" invalidValueTreatment="asMissing" missingValueTreatment="asMedian" missingValueReplacement="1"/>
      <MiningField name="SEISMIC_B" usageType="active" importance="0.15150576331068" invalidValueTreatment="asMissing" missingValueTreatment="asMedian" missingValueReplacement="0"/>
      <!--If an INIT variable was used, then uncomment the following element and set the name appropriately-->
      <!--MiningField name='init' usageType='active' missingValueReplacement='0'-->
    </MiningSchema>
    <Output>
      <OutputField name="PROB_0" optype="continuous" dataType="double" feature="probability" targetField="CLASS" value="0"/>
      <OutputField name="PROB_1" optype="continuous" dataType="double" feature="probability" targetField="CLASS" value="1"/>
      <OutputField name="PREDICTION" optype="categorical" dataType="integer" targetField="CLASS" feature="transformedValue">
        <Discretize field="PROB_1" dataType="integer" defaultValue="0">
          <DiscretizeBin binValue="1">
            <Interval closure="openOpen" leftMargin="0.5"/>
          </DiscretizeBin>
        </Discretize>
      </OutputField>
    </Output>
    <Segmentation multipleModelMethod="modelChain">
      <Segment id="Tree1">
        <True/>
        <TreeModel modelName="Tree1" functionName="regression" algorithmName="MART" missingValueStrategy="none" splitCharacteristic="binarySplit">
          <MiningSchema>
            <MiningField name="GENERGY" usageType="active"/>
            <MiningField name="GPULS" usageType="active"/>
            <MiningField name="GDENERGY" usageType="active"/>
            <MiningField name="GDPULS" usageType="active"/>
            <MiningField name="NBUMPS" usageType="active"/>
            <MiningField name="NBUMPS3" usageType="active"/>
            <MiningField name="ENERGY" usageType="active"/>
            <MiningField name="MAXENERGY" usageType="active"/>
            <MiningField name="SEISMOACOUSTIC_A" usageType="active"/>
          </MiningSchema>
          <Output>
            <OutputField name="Response1" optype="continuous" dataType="double" feature="predictedValue"/>
            <OutputField name="Node1" optype="categorical" dataType="integer" feature="entityId"/>
          </Output>
          <Node id="-1" score="-1.33295225728038">
            <True/>
            <Node id="-2" score="-1.35211994738727">
              <SimplePredicate field="NBUMPS" operator="lessThan" value="2.5"/>
              <Node id="-3" score="-1.36123688052399">
                <SimplePredicate field="GPULS" operator="lessThan" value="1404"/>
                <Node id="-4" score="-1.37736343551468">
                  <SimplePredicate field="GENERGY" operator="lessThan" value="31615"/>
                  <Node id="-5" score="-1.37863074876986">
                    <SimplePredicate field="GDPULS" operator="lessThan" value="233.5"/>
                    <Node id="-6" score="-1.38057640186255">
                      <SimplePredicate field="NBUMPS" operator="lessThan" value="1.5"/>
                      <Node id="-7" score="-1.39005217136997">
                        <SimplePredicate field="GDPULS" operator="lessThan" value="-14.5"/>
                        <Node id="1" score="-1.33502149581909">
                          <SimplePredicate field="GDENERGY" operator="lessThan" value="-84.5"/>
                        </Node>
                        <Node id="2" score="-1.3818973089381">
                          <True/>
                        </Node>
                      </Node>
                      <Node id="-8" score="-1.36902885804989">
                        <True/>
                        <Node id="3" score="-1.34073328088831">
                          <SimplePredicate field="GDPULS" operator="lessThan" value="6.5"/>
                        </Node>
                        <Node id="4" score="-1.37427359144089">
                          <True/>
                        </Node>
                      </Node>
                    </Node>
                    <Node id="-9" score="-1.33914420183967">
                      <True/>
                      <Node id="-10" score="-1.19796781539917">
                        <SimplePredicate field="GDENERGY" operator="lessThan" value="-41.5"/>
                        <Node id="5" score="-1.38642907142639">
                          <SimplePredicate field="SEISMOACOUSTIC_A" operator="lessThan" value="0.5"/>
                        </Node>
                        <Node id="6" score="-1.11225430170695">
                          <True/>
                        </Node>
                      </Node>
                      <Node id="7" score="-1.38642915089925">
                        <True/>
                      </Node>
                    </Node>
                  </Node>
                  <Node id="8" score="-1.18079793453217">
                    <True/>
                  </Node>
                </Node>
                <Node id="-11" score="-1.32871565462149">
                  <True/>
                  <Node id="-12" score="-1.33528967528601">
                    <SimplePredicate field="ENERGY" operator="lessThan" value="25000"/>
                    <Node id="9" score="-1.1514219556536">
                      <SimplePredicate field="GDPULS" operator="lessThan" value="-68.5"/>
                    </Node>
                    <Node id="-13" score="-1.33982822506927">
                      <True/>
                      <Node id="-14" score="-1.32704573827432">
                        <SimplePredicate field="ENERGY" operator="lessThan" value="3950"/>
                        <Node id="10" score="-1.33317214636494">
                          <SimplePredicate field="ENERGY" operator="lessThan" value="3300"/>
                        </Node>
                        <Node id="11" score="-0.975166857242584">
                          <True/>
                        </Node>
                      </Node>
                      <Node id="12" score="-1.38642907911731">
                        <True/>
                      </Node>
                    </Node>
                  </Node>
                  <Node id="-15" score="-1.09796781539917">
                    <True/>
                    <Node id="13" score="-0.975166797637939">
                      <SimplePredicate field="GDENERGY" operator="lessThan" value="-18"/>
                    </Node>
                    <Node id="14" score="-1.24934164683024">
                      <True/>
                    </Node>
                  </Node>
                </Node>
              </Node>
              <Node id="-16" score="-1.20393781519648">
                <True/>
                <Node id="15" score="-0.838079452514648">
                  <SimplePredicate field="GDENERGY" operator="lessThan" value="-32.5"/>
                </Node>
                <Node id="-17" score="-1.25042674580558">
                  <True/>
                  <Node id="-18" score="-1.33914420183967">
                    <SimplePredicate field="NBUMPS3" operator="lessThan" value="0.5"/>
                    <Node id="-19" score="-1.23130106925964">
                      <SimplePredicate field="GDENERGY" operator="lessThan" value="7.5"/>
                      <Node id="16" score="-1.38642907142639">
                        <SimplePredicate field="GPULS" operator="lessThan" value="1738"/>
                      </Node>
                      <Node id="17" score="-0.975166857242584">
                        <True/>
                      </Node>
                    </Node>
                    <Node id="18" score="-1.38642917979847">
                      <True/>
                    </Node>
                  </Node>
                  <Node id="-20" score="-1.13870846783673">
                    <True/>
                    <Node id="-21" score="-1.00907887352837">
                      <SimplePredicate field="ENERGY" operator="lessThan" value="9100"/>
                      <Node id="-22" score="-0.859506313617413">
                        <SimplePredicate field="GENERGY" operator="lessThan" value="1048490"/>
                        <Node id="19" score="-0.746687836117215">
                          <SimplePredicate field="NBUMPS3" operator="lessThan" value="1.5"/>
                        </Node>
                        <Node id="20" score="-1.38642907142639">
                          <True/>
                        </Node>
                      </Node>
                      <Node id="21" score="-1.38642911911011">
                        <True/>
                      </Node>
                    </Node>
                    <Node id="22" score="-1.38642915089925">
                      <True/>
                    </Node>
                  </Node>
                </Node>
              </Node>
            </Node>
            <Node id="-23" score="-1.17002655478085">
              <True/>
              <Node id="23" score="-0.838079929351807">
                <SimplePredicate field="GENERGY" operator="lessThan" value="19040"/>
              </Node>
              <Node id="-24" score="-1.19027545635517">
                <True/>
                <Node id="-25" score="-1.31286142227498">
                  <SimplePredicate field="GENERGY" operator="lessThan" value="49805"/>
                  <Node id="-26" score="-1.36766479954575">
                    <SimplePredicate field="NBUMPS3" operator="lessThan" value="2.5"/>
                    <Node id="24" score="-1.18079793453217">
                      <SimplePredicate field="GENERGY" operator="lessThan" value="22685"/>
                    </Node>
                    <Node id="25" score="-1.38642909609038">
                      <True/>
                    </Node>
                  </Node>
                  <Node id="-27" score="-1.18368203299386">
                    <True/>
                    <Node id="26" score="-1.38642910548619">
                      <SimplePredicate field="GENERGY" operator="lessThan" value="28695"/>
                    </Node>
                    <Node id="27" score="-1.03391858509609">
                      <True/>
                    </Node>
                  </Node>
                </Node>
                <Node id="-28" score="-1.1208593529391">
                  <True/>
                  <Node id="28" score="-0.838079293568929">
                    <SimplePredicate field="GDENERGY" operator="lessThan" value="-44"/>
                  </Node>
                  <Node id="-29" score="-1.15121459960938">
                    <True/>
                    <Node id="-30" score="-1.28368214198521">
                      <SimplePredicate field="GDPULS" operator="lessThan" value="5.5"/>
                      <Node id="29" score="-1.38642911911011">
                        <SimplePredicate field="MAXENERGY" operator="lessThan" value="8500"/>
                      </Node>
                      <Node id="-31" score="-1.13130111694336">
                        <True/>
                        <Node id="30" score="-1.02086279127333">
                          <SimplePredicate field="ENERGY" operator="lessThan" value="32750"/>
                        </Node>
                        <Node id="31" score="-1.38642915089925">
                          <True/>
                        </Node>
                      </Node>
                    </Node>
                    <Node id="-32" score="-1.04082489013672">
                      <True/>
                      <Node id="32" score="-1.38642907142639">
                        <SimplePredicate field="GPULS" operator="lessThan" value="516.5"/>
                      </Node>
                      <Node id="-33" score="-0.956791260663201">
                        <True/>
                        <Node id="33" score="-0.728409671783447">
                          <SimplePredicate field="GPULS" operator="lessThan" value="925.5"/>
                        </Node>
                        <Node id="34" score="-1.14652609825134">
                          <True/>
                        </Node>
                      </Node>
                    </Node>
                  </Node>
                </Node>
              </Node>
            </Node>
          </Node>
        </TreeModel>
      </Segment>
      <Segment id="Tree2">
        <True/>
        <TreeModel modelName="Tree2" functionName="regression" algorithmName="MART" missingValueStrategy="none" splitCharacteristic="binarySplit">
          <MiningSchema>
            <MiningField name="GENERGY" usageType="active"/>
            <MiningField name="GPULS" usageType="active"/>
            <MiningField name="GDENERGY" usageType="active"/>
            <MiningField name="GDPULS" usageType="active"/>
            <MiningField name="NBUMPS" usageType="active"/>
            <MiningField name="NBUMPS2" usageType="active"/>
            <MiningField name="NBUMPS3" usageType="active"/>
            <MiningField name="ENERGY" usageType="active"/>
            <MiningField name="MAXENERGY" usageType="active"/>
            <MiningField name="GHAZARD_A" usageType="active"/>
            <MiningField name="GHAZARD_B" usageType="active"/>
            <MiningField name="SEISMIC_A" usageType="active"/>
          </MiningSchema>
          <Output>
            <OutputField name="Response2" optype="continuous" dataType="double" feature="predictedValue"/>
            <OutputField name="Node2" optype="categorical" dataType="integer" feature="entityId"/>
          </Output>
          <Node id="-1" score="-0.00174819537360602">
            <True/>
            <Node id="-2" score="-0.0258580950814375">
              <SimplePredicate field="NBUMPS" operator="lessThan" value="1.5"/>
              <Node id="-3" score="-0.0322692149289384">
                <SimplePredicate field="GPULS" operator="lessThan" value="1404"/>
                <Node id="-4" score="-0.0423893243494168">
                  <SimplePredicate field="GENERGY" operator="lessThan" value="32715"/>
                  <Node id="-5" score="-0.0456576453946564">
                    <SimplePredicate field="GDENERGY" operator="lessThan" value="118.5"/>
                    <Node id="-6" score="-0.0518294274806976">
                      <SimplePredicate field="GDPULS" operator="lessThan" value="-14.5"/>
                      <Node id="-7" score="-0.00177170204765656">
                        <SimplePredicate field="GENERGY" operator="lessThan" value="1625"/>
                        <Node id="1" score="-0.0532290201920729">
                          <SimplePredicate field="GENERGY" operator="lessThan" value="1345"/>
                        </Node>
                        <Node id="2" score="0.166108533740044">
                          <True/>
                        </Node>
                      </Node>
                      <Node id="-8" score="-0.0541481776848151">
                        <True/>
                        <Node id="3" score="-0.0531716700724639">
                          <SimplePredicate field="GPULS" operator="lessThan" value="216.5"/>
                        </Node>
                        <Node id="4" score="-0.0402304884316265">
                          <True/>
                        </Node>
                      </Node>
                    </Node>
                    <Node id="-9" score="-0.0373999333132435">
                      <True/>
                      <Node id="-10" score="-0.00954701250249689">
                        <SimplePredicate field="GDPULS" operator="lessThan" value="6.5"/>
                        <Node id="5" score="-0.0141062275418695">
                          <SimplePredicate field="GDENERGY" operator="lessThan" value="28"/>
                        </Node>
                        <Node id="6" score="0.155013889074326">
                          <True/>
                        </Node>
                      </Node>
                      <Node id="-11" score="-0.0547096608048778">
                        <True/>
                        <Node id="7" score="0.0450430744224124">
                          <SimplePredicate field="GENERGY" operator="lessThan" value="4655"/>
                        </Node>
                        <Node id="8" score="-0.0532132841291882">
                          <True/>
                        </Node>
                      </Node>
                    </Node>
                  </Node>
                  <Node id="-12" score="0.0138425582494491">
                    <True/>
                    <Node id="9" score="0.550251722335815">
                      <SimplePredicate field="GDENERGY" operator="lessThan" value="122"/>
                    </Node>
                    <Node id="-13" score="-0.0626710142408099">
                      <True/>
                      <Node id="-14" score="-0.0603242381926506">
                        <SimplePredicate field="GDPULS" operator="lessThan" value="234"/>
                        <Node id="10" score="-0.0532010440473203">
                          <SimplePredicate field="GENERGY" operator="lessThan" value="29520"/>
                        </Node>
                        <Node id="11" score="-0.053273368626833">
                          <True/>
                        </Node>
                      </Node>
                      <Node id="12" score="-0.0544601082801819">
                        <True/>
                      </Node>
                    </Node>
                  </Node>
                </Node>
                <Node id="-15" score="-0.00594951861943954">
                  <True/>
                  <Node id="13" score="0.357944816350937">
                    <SimplePredicate field="GENERGY" operator="lessThan" value="32945"/>
                  </Node>
                  <Node id="-16" score="-0.0125065558905052">
                    <True/>
                    <Node id="14" score="0.187052857875824">
                      <SimplePredicate field="GDPULS" operator="lessThan" value="-68.5"/>
                    </Node>
                    <Node id="-17" score="-0.0185978232008038">
                      <True/>
                      <Node id="-18" score="0.000457719368960268">
                        <SimplePredicate field="GPULS" operator="lessThan" value="813.5"/>
                        <Node id="15" score="-0.00732892850485954">
                          <SimplePredicate field="GPULS" operator="lessThan" value="768.5"/>
                        </Node>
                        <Node id="16" score="0.275660371780395">
                          <True/>
                        </Node>
                      </Node>
                      <Node id="-19" score="-0.0640379648942214">
                        <True/>
                        <Node id="17" score="-0.0534752896337798">
                          <SimplePredicate field="ENERGY" operator="lessThan" value="3500"/>
                        </Node>
                        <Node id="18" score="-0.0531241546074549">
                          <True/>
                        </Node>
                      </Node>
                    </Node>
                  </Node>
                </Node>
              </Node>
              <Node id="-20" score="0.131695163249969">
                <True/>
                <Node id="-21" score="-0.00419626285632451">
                  <SimplePredicate field="NBUMPS3" operator="lessThan" value="0.5"/>
                  <Node id="-22" score="0.0777222563823064">
                    <SimplePredicate field="GDENERGY" operator="lessThan" value="7.5"/>
                    <Node id="-23" score="-0.0875852182507515">
                      <SimplePredicate field="GDENERGY" operator="lessThan" value="-5.5"/>
                      <Node id="19" score="-0.0567040555179119">
                        <SimplePredicate field="GDPULS" operator="lessThan" value="-11.5"/>
                      </Node>
                      <Node id="20" score="-0.0547043457627296">
                        <True/>
                      </Node>
                    </Node>
                    <Node id="21" score="0.248436734080315">
                      <True/>
                    </Node>
                  </Node>
                  <Node id="22" score="-0.0531241595745087">
                    <True/>
                  </Node>
                </Node>
                <Node id="-24" score="0.539369440078735">
                  <True/>
                  <Node id="23" score="0.31724938750267">
                    <SimplePredicate field="GDENERGY" operator="lessThan" value="-32.5"/>
                  </Node>
                  <Node id="24" score="0.125842998425166">
                    <True/>
                  </Node>
                </Node>
              </Node>
            </Node>
            <Node id="-25" score="0.0899411240474885">
              <True/>
              <Node id="-26" score="-0.0352794719593866">
                <SimplePredicate field="NBUMPS2" operator="lessThan" value="0.5"/>
                <Node id="25" score="0.145477071404457">
                  <SimplePredicate field="GHAZARD_A" operator="lessThan" value="0.5"/>
                </Node>
                <Node id="-27" score="-0.0520409941673279">
                  <True/>
                  <Node id="-28" score="-0.0689233668307041">
                    <SimplePredicate field="NBUMPS" operator="lessThan" value="3.5"/>
                    <Node id="-29" score="-0.061605555670602">
                      <SimplePredicate field="ENERGY" operator="lessThan" value="32500"/>
                      <Node id="26" score="-0.0547830536961555">
                        <SimplePredicate field="GPULS" operator="lessThan" value="314"/>
                      </Node>
                      <Node id="-30" score="-0.0590079676720404">
                        <True/>
                        <Node id="27" score="-0.0531241584707189">
                          <SimplePredicate field="GDPULS" operator="lessThan" value="59.5"/>
                        </Node>
                        <Node id="28" score="-0.0532182268798351">
                          <True/>
                        </Node>
                      </Node>
                    </Node>
                    <Node id="-31" score="-0.0902669827143351">
                      <True/>
                      <Node id="29" score="-0.0582024574279785">
                        <SimplePredicate field="ENERGY" operator="lessThan" value="73500"/>
                      </Node>
                      <Node id="30" score="-0.0542291487966265">
                        <True/>
                      </Node>
                    </Node>
                  </Node>
                  <Node id="31" score="0.0632955193519592">
                    <True/>
                  </Node>
                </Node>
              </Node>
              <Node id="-32" score="0.122862972563981">
                <True/>
                <Node id="-33" score="0.0793278121948242">
                  <SimplePredicate field="GPULS" operator="lessThan" value="897.5"/>
                  <Node id="-34" score="0.211446300148964">
                    <SimplePredicate field="GDENERGY" operator="lessThan" value="-40.5"/>
                    <Node id="-35" score="0.087684534844898">
                      <SimplePredicate field="GDPULS" operator="lessThan" value="-45.5"/>
                      <Node id="-36" score="-0.0912646849950155">
                        <SimplePredicate field="ENERGY" operator="lessThan" value="4600"/>
                        <Node id="32" score="-0.0564869165420532">
                          <SimplePredicate field="GENERGY" operator="lessThan" value="18705"/>
                        </Node>
                        <Node id="33" score="-0.0538177043199539">
                          <True/>
                        </Node>
                      </Node>
                      <Node id="-37" score="0.221896449724833">
                        <True/>
                        <Node id="34" score="0.231971005598704">
                          <SimplePredicate field="ENERGY" operator="lessThan" value="9700"/>
                        </Node>
                        <Node id="35" score="0.0196306295692921">
                          <True/>
                        </Node>
                      </Node>
                    </Node>
                    <Node id="-38" score="0.447718750346791">
                      <True/>
                      <Node id="36" score="0.374574875831604">
                        <SimplePredicate field="GPULS" operator="lessThan" value="211.5"/>
                      </Node>
                      <Node id="37" score="0.148845980564753">
                        <True/>
                      </Node>
                    </Node>
                  </Node>
                  <Node id="-39" score="0.0434990696987863">
                    <True/>
                    <Node id="-40" score="-0.00601917658096705">
                      <SimplePredicate field="GENERGY" operator="lessThan" value="58310"/>
                      <Node id="-41" score="-0.035913902615744">
                        <SimplePredicate field="ENERGY" operator="lessThan" value="12350"/>
                        <Node id="38" score="-0.0405121959488967">
                          <SimplePredicate field="GHAZARD_B" operator="lessThan" value="0.5"/>
                        </Node>
                        <Node id="39" score="0.124000978469849">
                          <True/>
                        </Node>
                      </Node>
                      <Node id="-42" score="0.119538672765096">
                        <True/>
                        <Node id="40" score="0.224289457003276">
                          <SimplePredicate field="GDENERGY" operator="lessThan" value="-1.5"/>
                        </Node>
                        <Node id="41" score="-0.0538202987776862">
                          <True/>
                        </Node>
                      </Node>
                    </Node>
                    <Node id="-43" score="0.140059649944305">
                      <True/>
                      <Node id="-44" score="0.280626501355852">
                        <SimplePredicate field="GENERGY" operator="lessThan" value="82490"/>
                        <Node id="42" score="0.201988190412521">
                          <SimplePredicate field="GDENERGY" operator="lessThan" value="97"/>
                        </Node>
                        <Node id="43" score="-0.0534101605415344">
                          <True/>
                        </Node>
                      </Node>
                      <Node id="-45" score="-0.0153037011623383">
                        <True/>
                        <Node id="44" score="-0.0532961964607239">
                          <SimplePredicate field="ENERGY" operator="lessThan" value="8500"/>
                        </Node>
                        <Node id="45" score="0.0993764251470566">
                          <True/>
                        </Node>
                      </Node>
                    </Node>
                  </Node>
                </Node>
                <Node id="-46" score="0.226518116300068">
                  <True/>
                  <Node id="-47" score="0.3041827917099">
                    <SimplePredicate field="SEISMIC_A" operator="lessThan" value="0.5"/>
                    <Node id="-48" score="0.536887645721436">
                      <SimplePredicate field="ENERGY" operator="lessThan" value="8950"/>
                      <Node id="46" score="0.156979332367579">
                        <SimplePredicate field="GENERGY" operator="lessThan" value="197490"/>
                      </Node>
                      <Node id="-49" score="0.755584478378296">
                        <True/>
                        <Node id="47" score="0.29723533987999">
                          <SimplePredicate field="GPULS" operator="lessThan" value="1716"/>
                        </Node>
                        <Node id="48" score="0.443075835704803">
                          <True/>
                        </Node>
                      </Node>
                    </Node>
                    <Node id="-50" score="0.178880178011381">
                      <True/>
                      <Node id="49" score="-0.0552151302496592">
                        <SimplePredicate field="ENERGY" operator="lessThan" value="26850"/>
                      </Node>
                      <Node id="-51" score="0.25908420085907">
                        <True/>
                        <Node id="50" score="0.0210959296673536">
                          <SimplePredicate field="GENERGY" operator="lessThan" value="189465"/>
                        </Node>
                        <Node id="51" score="0.247935632864634">
                          <True/>
                        </Node>
                      </Node>
                    </Node>
                  </Node>
                  <Node id="-52" score="0.0914491363193678">
                    <True/>
                    <Node id="-53" score="-0.0130435780567281">
                      <SimplePredicate field="MAXENERGY" operator="lessThan" value="5500"/>
                      <Node id="52" score="0.120096810162067">
                        <SimplePredicate field="GENERGY" operator="lessThan" value="154035"/>
                      </Node>
                      <Node id="-54" score="-0.0698798298835754">
                        <True/>
                        <Node id="53" score="-0.0532182268798351">
                          <SimplePredicate field="GPULS" operator="lessThan" value="2095"/>
                        </Node>
                        <Node id="54" score="-0.0547738254070282">
                          <True/>
                        </Node>
                      </Node>
                    </Node>
                    <Node id="55" score="0.197789708773295">
                      <True/>
                    </Node>
                  </Node>
                </Node>
              </Node>
            </Node>
          </Node>
        </TreeModel>
      </Segment>
      <Segment id="Tree3">
        <True/>
        <TreeModel modelName="Tree3" functionName="regression" algorithmName="MART" missingValueStrategy="none" splitCharacteristic="binarySplit">
          <MiningSchema>
            <MiningField name="GENERGY" usageType="active"/>
            <MiningField name="GPULS" usageType="active"/>
            <MiningField name="GDENERGY" usageType="active"/>
            <MiningField name="GDPULS" usageType="active"/>
            <MiningField name="NBUMPS" usageType="active"/>
            <MiningField name="NBUMPS2" usageType="active"/>
            <MiningField name="NBUMPS3" usageType="active"/>
            <MiningField name="ENERGY" usageType="active"/>
            <MiningField name="MAXENERGY" usageType="active"/>
            <MiningField name="SEISMOACOUSTIC_B" usageType="active"/>
            <MiningField name="GHAZARD_A" usageType="active"/>
            <MiningField name="GHAZARD_B" usageType="active"/>
          </MiningSchema>
          <Output>
            <OutputField name="Response3" optype="continuous" dataType="double" feature="predictedValue"/>
            <OutputField name="Node3" optype="categorical" dataType="integer" feature="entityId"/>
          </Output>
          <Node id="-1" score="-0.00263423594897007">
            <True/>
            <Node id="-2" score="-0.0238882980272101">
              <SimplePredicate field="NBUMPS" operator="lessThan" value="1.5"/>
              <Node id="-3" score="-0.0295451951051171">
                <SimplePredicate field="GPULS" operator="lessThan" value="1404"/>
                <Node id="-4" score="-0.0386227701751279">
                  <SimplePredicate field="GENERGY" operator="lessThan" value="32715"/>
                  <Node id="-5" score="-0.0413310964843022">
                    <SimplePredicate field="GDENERGY" operator="lessThan" value="118.5"/>
                    <Node id="-6" score="-0.0469054083029429">
                      <SimplePredicate field="GDPULS" operator="lessThan" value="-14.5"/>
                      <Node id="-7" score="0.00204845145344734">
                        <SimplePredicate field="GDENERGY" operator="lessThan" value="-84.5"/>
                        <Node id="1" score="0.149741262197495">
                          <SimplePredicate field="GENERGY" operator="lessThan" value="2070"/>
                        </Node>
                        <Node id="2" score="-0.0531131575504939">
                          <True/>
                        </Node>
                      </Node>
                      <Node id="-8" score="-0.0490338387696639">
                        <True/>
                        <Node id="3" score="-0.0528756426526355">
                          <SimplePredicate field="GENERGY" operator="lessThan" value="13565"/>
                        </Node>
                        <Node id="4" score="-0.0388405618876436">
                          <True/>
                        </Node>
                      </Node>
                    </Node>
                    <Node id="-9" score="-0.0338727838070966">
                      <True/>
                      <Node id="-10" score="-0.00871071761304682">
                        <SimplePredicate field="GDPULS" operator="lessThan" value="6.5"/>
                        <Node id="5" score="0.0781413683524499">
                          <SimplePredicate field="GPULS" operator="lessThan" value="200"/>
                        </Node>
                        <Node id="6" score="-0.0186514559480333">
                          <True/>
                        </Node>
                      </Node>
                      <Node id="-11" score="-0.049510228431831">
                        <True/>
                        <Node id="7" score="0.0372991396321191">
                          <SimplePredicate field="GENERGY" operator="lessThan" value="4655"/>
                        </Node>
                        <Node id="8" score="-0.0528888815925235">
                          <True/>
                        </Node>
                      </Node>
                    </Node>
                  </Node>
                  <Node id="-12" score="0.00797432431807885">
                    <True/>
                    <Node id="9" score="0.198525205254555">
                      <SimplePredicate field="GDENERGY" operator="lessThan" value="122"/>
                    </Node>
                    <Node id="-13" score="-0.0566884245191302">
                      <True/>
                      <Node id="-14" score="-0.0545666410077003">
                        <SimplePredicate field="GDPULS" operator="lessThan" value="234"/>
                        <Node id="10" score="-0.0528779383058901">
                          <SimplePredicate field="GENERGY" operator="lessThan" value="29520"/>
                        </Node>
                        <Node id="11" score="-0.0529425889253616">
                          <True/>
                        </Node>
                      </Node>
                      <Node id="12" score="-0.0540006272494793">
                        <True/>
                      </Node>
                    </Node>
                  </Node>
                </Node>
                <Node id="-15" score="-0.00593685230492672">
                  <True/>
                  <Node id="13" score="0.172241643071175">
                    <SimplePredicate field="GENERGY" operator="lessThan" value="32945"/>
                  </Node>
                  <Node id="-16" score="-0.0116087193825874">
                    <True/>
                    <Node id="-17" score="0.00730566204530406">
                      <SimplePredicate field="GPULS" operator="lessThan" value="813.5"/>
                      <Node id="-18" score="-0.0243982434272766">
                        <SimplePredicate field="SEISMOACOUSTIC_B" operator="lessThan" value="0.5"/>
                        <Node id="14" score="-0.0310080430217992">
                          <SimplePredicate field="NBUMPS2" operator="lessThan" value="0.5"/>
                        </Node>
                        <Node id="15" score="0.0747922842319195">
                          <True/>
                        </Node>
                      </Node>
                      <Node id="-19" score="0.0608897276327644">
                        <True/>
                        <Node id="16" score="0.032929986270506">
                          <SimplePredicate field="GPULS" operator="lessThan" value="754.5"/>
                        </Node>
                        <Node id="17" score="0.265376418828964">
                          <True/>
                        </Node>
                      </Node>
                    </Node>
                    <Node id="-20" score="-0.0579247046739627">
                      <True/>
                      <Node id="18" score="-0.0531227986017863">
                        <SimplePredicate field="ENERGY" operator="lessThan" value="3500"/>
                      </Node>
                      <Node id="19" score="-0.0528092434008916">
                        <True/>
                      </Node>
                    </Node>
                  </Node>
                </Node>
              </Node>
              <Node id="-21" score="0.115129947662354">
                <True/>
                <Node id="-22" score="-0.00521286229292552">
                  <SimplePredicate field="NBUMPS3" operator="lessThan" value="0.5"/>
                  <Node id="-23" score="0.0667620201905568">
                    <SimplePredicate field="GDENERGY" operator="lessThan" value="7.5"/>
                    <Node id="-24" score="-0.0792066976428032">
                      <SimplePredicate field="GDENERGY" operator="lessThan" value="-5.5"/>
                      <Node id="20" score="-0.0542145743966103">
                        <SimplePredicate field="NBUMPS" operator="lessThan" value="0.5"/>
                      </Node>
                      <Node id="21" score="-0.0560141205787659">
                        <True/>
                      </Node>
                    </Node>
                    <Node id="22" score="0.150695741176605">
                      <True/>
                    </Node>
                  </Node>
                  <Node id="23" score="-0.0528092516793145">
                    <True/>
                  </Node>
                </Node>
                <Node id="-25" score="0.476158380508423">
                  <True/>
                  <Node id="24" score="0.206575989723206">
                    <SimplePredicate field="ENERGY" operator="lessThan" value="2500"/>
                  </Node>
                  <Node id="25" score="0.0886911153793335">
                    <True/>
                  </Node>
                </Node>
              </Node>
            </Node>
            <Node id="-26" score="0.0781944090548944">
              <True/>
              <Node id="-27" score="-0.0322345920971462">
                <SimplePredicate field="NBUMPS2" operator="lessThan" value="0.5"/>
                <Node id="26" score="0.100916244089603">
                  <SimplePredicate field="GHAZARD_A" operator="lessThan" value="0.5"/>
                </Node>
                <Node id="-28" score="-0.0471682181725135">
                  <True/>
                  <Node id="-29" score="0.0627923160791397">
                    <SimplePredicate field="GENERGY" operator="lessThan" value="35515"/>
                    <Node id="27" score="-0.0528092607855797">
                      <SimplePredicate field="GDENERGY" operator="lessThan" value="-25"/>
                    </Node>
                    <Node id="28" score="0.13717645406723">
                      <True/>
                    </Node>
                  </Node>
                  <Node id="-30" score="-0.067161045291207">
                    <True/>
                    <Node id="-31" score="-0.0561292250951131">
                      <SimplePredicate field="MAXENERGY" operator="lessThan" value="25000"/>
                      <Node id="29" score="-0.05429283156991">
                        <SimplePredicate field="GENERGY" operator="lessThan" value="52925"/>
                      </Node>
                      <Node id="-32" score="-0.0533850513971769">
                        <True/>
                        <Node id="30" score="-0.0528936199843884">
                          <SimplePredicate field="GENERGY" operator="lessThan" value="63230"/>
                        </Node>
                        <Node id="31" score="-0.0528074990619313">
                          <True/>
                        </Node>
                      </Node>
                    </Node>
                    <Node id="-33" score="-0.0908006599971226">
                      <True/>
                      <Node id="32" score="-0.0572056571642558">
                        <SimplePredicate field="MAXENERGY" operator="lessThan" value="65000"/>
                      </Node>
                      <Node id="-34" score="-0.0761204734444618">
                        <True/>
                        <Node id="33" score="-0.0556655079126358">
                          <SimplePredicate field="GDENERGY" operator="lessThan" value="-0.5"/>
                        </Node>
                        <Node id="34" score="-0.0530616603791714">
                          <True/>
                        </Node>
                      </Node>
                    </Node>
                  </Node>
                </Node>
              </Node>
              <Node id="-35" score="0.107227388122272">
                <True/>
                <Node id="-36" score="0.0611733465052363">
                  <SimplePredicate field="GPULS" operator="lessThan" value="744"/>
                  <Node id="-37" score="0.0818225611811099">
                    <SimplePredicate field="GENERGY" operator="lessThan" value="82490"/>
                    <Node id="-38" score="0.0596068832609389">
                      <SimplePredicate field="GENERGY" operator="lessThan" value="68225"/>
                      <Node id="-39" score="0.218400239944458">
                        <SimplePredicate field="GDENERGY" operator="lessThan" value="-40.5"/>
                        <Node id="35" score="0.0496881572823775">
                          <SimplePredicate field="GDENERGY" operator="lessThan" value="-46.5"/>
                        </Node>
                        <Node id="36" score="0.204499397959028">
                          <True/>
                        </Node>
                      </Node>
                      <Node id="-40" score="0.00925777161993632">
                        <True/>
                        <Node id="37" score="-0.00654389002384284">
                          <SimplePredicate field="ENERGY" operator="lessThan" value="40400"/>
                        </Node>
                        <Node id="38" score="0.155425220727921">
                          <True/>
                        </Node>
                      </Node>
                    </Node>
                    <Node id="39" score="0.17747802393777">
                      <True/>
                    </Node>
                  </Node>
                  <Node id="-41" score="-0.0638087611449392">
                    <True/>
                    <Node id="-42" score="-0.0558005174001058">
                      <SimplePredicate field="ENERGY" operator="lessThan" value="10350"/>
                      <Node id="-43" score="-0.0580945238471031">
                        <SimplePredicate field="NBUMPS" operator="lessThan" value="2.5"/>
                        <Node id="40" score="-0.0531239211559296">
                          <SimplePredicate field="GENERGY" operator="lessThan" value="217960"/>
                        </Node>
                        <Node id="41" score="-0.0530498437583447">
                          <True/>
                        </Node>
                      </Node>
                      <Node id="42" score="-0.0528082805020469">
                        <True/>
                      </Node>
                    </Node>
                    <Node id="43" score="-0.0562287382781506">
                      <True/>
                    </Node>
                  </Node>
                </Node>
                <Node id="-44" score="0.185344370105599">
                  <True/>
                  <Node id="-45" score="0.209944566090902">
                    <SimplePredicate field="GDENERGY" operator="lessThan" value="123"/>
                    <Node id="-46" score="0.192632212783351">
                      <SimplePredicate field="GHAZARD_B" operator="lessThan" value="0.5"/>
                      <Node id="-47" score="0.229219726153782">
                        <SimplePredicate field="ENERGY" operator="lessThan" value="38300"/>
                        <Node id="44" score="0.0159464970231056">
                          <SimplePredicate field="MAXENERGY" operator="lessThan" value="1500"/>
                        </Node>
                        <Node id="45" score="0.12076531285825">
                          <True/>
                        </Node>
                      </Node>
                      <Node id="-48" score="-0.0122578904032707">
                        <True/>
                        <Node id="46" score="-0.0572698265314102">
                          <SimplePredicate field="GDENERGY" operator="lessThan" value="13.5"/>
                        </Node>
                        <Node id="47" score="0.0758009776473045">
                          <True/>
                        </Node>
                      </Node>
                    </Node>
                    <Node id="48" score="0.227781077226003">
                      <True/>
                    </Node>
                  </Node>
                  <Node id="49" score="-0.0537945372717721">
                    <True/>
                  </Node>
                </Node>
              </Node>
            </Node>
          </Node>
        </TreeModel>
      </Segment>
      <Segment id="Tree4">
        <True/>
        <TreeModel modelName="Tree4" functionName="regression" algorithmName="MART" missingValueStrategy="none" splitCharacteristic="binarySplit">
          <MiningSchema>
            <MiningField name="GENERGY" usageType="active"/>
            <MiningField name="GPULS" usageType="active"/>
            <MiningField name="GDENERGY" usageType="active"/>
            <MiningField name="GDPULS" usageType="active"/>
            <MiningField name="NBUMPS" usageType="active"/>
            <MiningField name="NBUMPS2" usageType="active"/>
            <MiningField name="NBUMPS3" usageType="active"/>
            <MiningField name="ENERGY" usageType="active"/>
            <MiningField name="MAXENERGY" usageType="active"/>
            <MiningField name="GHAZARD_A" usageType="active"/>
            <MiningField name="SEISMIC_A" usageType="active"/>
          </MiningSchema>
          <Output>
            <OutputField name="Response4" optype="continuous" dataType="double" feature="predictedValue"/>
            <OutputField name="Node4" optype="categorical" dataType="integer" feature="entityId"/>
          </Output>
          <Node id="-1" score="-0.00287094333961652">
            <True/>
            <Node id="-2" score="-0.0218439092850522">
              <SimplePredicate field="NBUMPS" operator="lessThan" value="1.5"/>
              <Node id="-3" score="-0.0268866130561091">
                <SimplePredicate field="GPULS" operator="lessThan" value="1404"/>
                <Node id="-4" score="-0.0350191008876747">
                  <SimplePredicate field="GENERGY" operator="lessThan" value="32715"/>
                  <Node id="-5" score="-0.0374139026806713">
                    <SimplePredicate field="GDENERGY" operator="lessThan" value="118.5"/>
                    <Node id="-6" score="-0.0424480934937795">
                      <SimplePredicate field="GDPULS" operator="lessThan" value="-14.5"/>
                      <Node id="-7" score="0.00100441393442452">
                        <SimplePredicate field="GDENERGY" operator="lessThan" value="-84.5"/>
                        <Node id="1" score="-0.0532502233982086">
                          <SimplePredicate field="GDPULS" operator="lessThan" value="-76"/>
                        </Node>
                        <Node id="2" score="0.143657088279724">
                          <True/>
                        </Node>
                      </Node>
                      <Node id="-8" score="-0.044337334840194">
                        <True/>
                        <Node id="3" score="-0.0525872160345961">
                          <SimplePredicate field="GENERGY" operator="lessThan" value="13565"/>
                        </Node>
                        <Node id="4" score="-0.0376115819833574">
                          <True/>
                        </Node>
                      </Node>
                    </Node>
                    <Node id="-9" score="-0.0306782606171399">
                      <True/>
                      <Node id="-10" score="-0.00794792175292969">
                        <SimplePredicate field="GDPULS" operator="lessThan" value="6.5"/>
                        <Node id="5" score="-0.0183194679083283">
                          <SimplePredicate field="GPULS" operator="lessThan" value="533.5"/>
                        </Node>
                        <Node id="6" score="0.0824937086838942">
                          <True/>
                        </Node>
                      </Node>
                      <Node id="-11" score="-0.0448044599112818">
                        <True/>
                        <Node id="7" score="0.0313575598928663">
                          <SimplePredicate field="GENERGY" operator="lessThan" value="4655"/>
                        </Node>
                        <Node id="8" score="-0.0525989135106405">
                          <True/>
                        </Node>
                      </Node>
                    </Node>
                  </Node>
                  <Node id="-12" score="0.00618377480751429">
                    <True/>
                    <Node id="9" score="0.139903783798218">
                      <SimplePredicate field="GDENERGY" operator="lessThan" value="122"/>
                    </Node>
                    <Node id="-13" score="-0.0512786456516811">
                      <True/>
                      <Node id="-14" score="-0.0493601291410385">
                        <SimplePredicate field="GDPULS" operator="lessThan" value="234"/>
                        <Node id="10" score="-0.0525891206882618">
                          <SimplePredicate field="GENERGY" operator="lessThan" value="29520"/>
                        </Node>
                        <Node id="11" score="-0.0526469759643078">
                          <True/>
                        </Node>
                      </Node>
                      <Node id="12" score="-0.053591713309288">
                        <True/>
                      </Node>
                    </Node>
                  </Node>
                </Node>
                <Node id="-15" score="-0.00573618682749542">
                  <True/>
                  <Node id="-16" score="0.0129280591622377">
                    <SimplePredicate field="GPULS" operator="lessThan" value="813.5"/>
                    <Node id="-17" score="-0.038298993399649">
                      <SimplePredicate field="GPULS" operator="lessThan" value="332.5"/>
                      <Node id="-18" score="-0.0526248485811295">
                        <SimplePredicate field="GDPULS" operator="lessThan" value="58.5"/>
                        <Node id="13" score="-0.0540838364897103">
                          <SimplePredicate field="ENERGY" operator="lessThan" value="5500"/>
                        </Node>
                        <Node id="14" score="0.129215583205223">
                          <True/>
                        </Node>
                      </Node>
                      <Node id="15" score="0.148550361394882">
                        <True/>
                      </Node>
                    </Node>
                    <Node id="-19" score="0.0391372488450634">
                      <True/>
                      <Node id="16" score="0.253802871704102">
                        <SimplePredicate field="GPULS" operator="lessThan" value="351.5"/>
                      </Node>
                      <Node id="-20" score="0.0274065483000971">
                        <True/>
                        <Node id="17" score="0.0501902341842651">
                          <SimplePredicate field="NBUMPS" operator="lessThan" value="0.5"/>
                        </Node>
                        <Node id="18" score="-0.0351369651881131">
                          <True/>
                        </Node>
                      </Node>
                    </Node>
                  </Node>
                  <Node id="-21" score="-0.0523968048584767">
                    <True/>
                    <Node id="19" score="-0.0528080318913315">
                      <SimplePredicate field="ENERGY" operator="lessThan" value="3500"/>
                    </Node>
                    <Node id="20" score="-0.0525276710589727">
                      <True/>
                    </Node>
                  </Node>
                </Node>
              </Node>
              <Node id="-22" score="0.102080523967743">
                <True/>
                <Node id="-23" score="-0.00544192989667257">
                  <SimplePredicate field="NBUMPS3" operator="lessThan" value="0.5"/>
                  <Node id="-24" score="-0.0643567485468728">
                    <SimplePredicate field="GPULS" operator="lessThan" value="1738"/>
                    <Node id="21" score="-0.0554734809058053">
                      <SimplePredicate field="GDPULS" operator="lessThan" value="-0.5"/>
                    </Node>
                    <Node id="22" score="-0.0525255288396563">
                      <True/>
                    </Node>
                  </Node>
                  <Node id="-25" score="0.0461085364222527">
                    <True/>
                    <Node id="23" score="0.119872085750103">
                      <SimplePredicate field="GDENERGY" operator="lessThan" value="7.5"/>
                    </Node>
                    <Node id="24" score="-0.0525276660919189">
                      <True/>
                    </Node>
                  </Node>
                </Node>
                <Node id="-26" score="0.424647903442383">
                  <True/>
                  <Node id="25" score="0.161282181739807">
                    <SimplePredicate field="GENERGY" operator="lessThan" value="434770"/>
                  </Node>
                  <Node id="26" score="0.0683951129515966">
                    <True/>
                  </Node>
                </Node>
              </Node>
            </Node>
            <Node id="-27" score="0.0692827515442575">
              <True/>
              <Node id="-28" score="-0.0295186170509883">
                <SimplePredicate field="NBUMPS2" operator="lessThan" value="0.5"/>
                <Node id="27" score="0.0764779523015022">
                  <SimplePredicate field="GHAZARD_A" operator="lessThan" value="0.5"/>
                </Node>
                <Node id="-29" score="-0.0428903561372023">
                  <True/>
                  <Node id="-30" score="-0.0577189973060121">
                    <SimplePredicate field="NBUMPS" operator="lessThan" value="3.5"/>
                    <Node id="-31" score="-0.0509856292179653">
                      <SimplePredicate field="MAXENERGY" operator="lessThan" value="25000"/>
                      <Node id="28" score="-0.0538551919162273">
                        <SimplePredicate field="GPULS" operator="lessThan" value="314"/>
                      </Node>
                      <Node id="-32" score="-0.0489326830833189">
                        <True/>
                        <Node id="29" score="-0.0529601015150547">
                          <SimplePredicate field="MAXENERGY" operator="lessThan" value="2500"/>
                        </Node>
                        <Node id="30" score="-0.0525263945261637">
                          <True/>
                        </Node>
                      </Node>
                    </Node>
                    <Node id="-33" score="-0.0773579875628154">
                      <True/>
                      <Node id="31" score="-0.0565629184246063">
                        <SimplePredicate field="ENERGY" operator="lessThan" value="73500"/>
                      </Node>
                      <Node id="32" score="-0.0536970070430211">
                        <True/>
                      </Node>
                    </Node>
                  </Node>
                  <Node id="33" score="0.0526031792163849">
                    <True/>
                  </Node>
                </Node>
              </Node>
              <Node id="-34" score="0.0952586948591779">
                <True/>
                <Node id="-35" score="0.0313304575478158">
                  <SimplePredicate field="GENERGY" operator="lessThan" value="45205"/>
                  <Node id="-36" score="0.101521392201268">
                    <SimplePredicate field="GPULS" operator="lessThan" value="289.5"/>
                    <Node id="-37" score="-0.0702503502368927">
                      <SimplePredicate field="GPULS" operator="lessThan" value="95"/>
                      <Node id="34" score="-0.0556058287620544">
                        <SimplePredicate field="GDENERGY" operator="lessThan" value="-25"/>
                      </Node>
                      <Node id="35" score="-0.0529011388619741">
                        <True/>
                      </Node>
                    </Node>
                    <Node id="-38" score="0.153573440782952">
                      <True/>
                      <Node id="-39" score="0.281731575727463">
                        <SimplePredicate field="GENERGY" operator="lessThan" value="21175"/>
                        <Node id="36" score="0.0523226112127304">
                          <SimplePredicate field="SEISMIC_A" operator="lessThan" value="0.5"/>
                        </Node>
                        <Node id="37" score="0.161368831992149">
                          <True/>
                        </Node>
                      </Node>
                      <Node id="-40" score="0.0329540056340835">
                        <True/>
                        <Node id="38" score="-0.0539455367968633">
                          <SimplePredicate field="ENERGY" operator="lessThan" value="12900"/>
                        </Node>
                        <Node id="39" score="0.159307226538658">
                          <True/>
                        </Node>
                      </Node>
                    </Node>
                  </Node>
                  <Node id="-41" score="-0.0460595412132068">
                    <True/>
                    <Node id="-42" score="-0.0661870615822928">
                      <SimplePredicate field="NBUMPS" operator="lessThan" value="5.5"/>
                      <Node id="-43" score="-0.0762780427932739">
                        <SimplePredicate field="NBUMPS2" operator="lessThan" value="1.5"/>
                        <Node id="40" score="-0.0554252490401268">
                          <SimplePredicate field="GDENERGY" operator="lessThan" value="5"/>
                        </Node>
                        <Node id="41" score="-0.0532650649547577">
                          <True/>
                        </Node>
                      </Node>
                      <Node id="-44" score="-0.058618825674057">
                        <True/>
                        <Node id="42" score="-0.0536673665046692">
                          <SimplePredicate field="GENERGY" operator="lessThan" value="27665"/>
                        </Node>
                        <Node id="43" score="-0.0529751141866048">
                          <True/>
                        </Node>
                      </Node>
                    </Node>
                    <Node id="44" score="0.0636254847049713">
                      <True/>
                    </Node>
                  </Node>
                </Node>
                <Node id="-45" score="0.135274843405221">
                  <True/>
                  <Node id="-46" score="0.306842875480652">
                    <SimplePredicate field="ENERGY" operator="lessThan" value="950"/>
                    <Node id="45" score="-0.0529910251498222">
                      <SimplePredicate field="ENERGY" operator="lessThan" value="650"/>
                    </Node>
                    <Node id="46" score="0.2796923716863">
                      <True/>
                    </Node>
                  </Node>
                  <Node id="-47" score="0.121095665230239">
                    <True/>
                    <Node id="-48" score="-0.000539126573130488">
                      <SimplePredicate field="MAXENERGY" operator="lessThan" value="2500"/>
                      <Node id="-49" score="-0.051106911439162">
                        <SimplePredicate field="GDENERGY" operator="lessThan" value="87.5"/>
                        <Node id="47" score="-0.0546012103557587">
                          <SimplePredicate field="NBUMPS3" operator="lessThan" value="1.5"/>
                        </Node>
                        <Node id="48" score="0.0110924653708935">
                          <True/>
                        </Node>
                      </Node>
                      <Node id="49" score="0.116426418224971">
                        <True/>
                      </Node>
                    </Node>
                    <Node id="-50" score="0.164829522036435">
                      <True/>
                      <Node id="-51" score="0.234685755790548">
                        <SimplePredicate field="NBUMPS" operator="lessThan" value="3.5"/>
                        <Node id="50" score="0.11293462427651">
                          <SimplePredicate field="GENERGY" operator="lessThan" value="1027680"/>
                        </Node>
                        <Node id="51" score="-0.0544287363688151">
                          <True/>
                        </Node>
                      </Node>
                      <Node id="-52" score="0.0866570756548927">
                        <True/>
                        <Node id="52" score="0.0608557643312396">
                          <SimplePredicate field="ENERGY" operator="lessThan" value="40900"/>
                        </Node>
                        <Node id="53" score="-0.0556840830379062">
                          <True/>
                        </Node>
                      </Node>
                    </Node>
                  </Node>
                </Node>
              </Node>
            </Node>
          </Node>
        </TreeModel>
      </Segment>
      <Segment id="Tree5">
        <True/>
        <TreeModel modelName="Tree5" functionName="regression" algorithmName="MART" missingValueStrategy="none" splitCharacteristic="binarySplit">
          <MiningSchema>
            <MiningField name="GENERGY" usageType="active"/>
            <MiningField name="GPULS" usageType="active"/>
            <MiningField name="GDENERGY" usageType="active"/>
            <MiningField name="GDPULS" usageType="active"/>
            <MiningField name="NBUMPS" usageType="active"/>
            <MiningField name="NBUMPS2" usageType="active"/>
            <MiningField name="ENERGY" usageType="active"/>
            <MiningField name="MAXENERGY" usageType="active"/>
            <MiningField name="SEISMOACOUSTIC_A" usageType="active"/>
            <MiningField name="SEISMOACOUSTIC_B" usageType="active"/>
            <MiningField name="GHAZARD_A" usageType="active"/>
            <MiningField name="SEISMIC_B" usageType="active"/>
          </MiningSchema>
          <Output>
            <OutputField name="Response5" optype="continuous" dataType="double" feature="predictedValue"/>
            <OutputField name="Node5" optype="categorical" dataType="integer" feature="entityId"/>
          </Output>
          <Node id="-1" score="-0.00304184148186132">
            <True/>
            <Node id="-2" score="-0.0199674436656844">
              <SimplePredicate field="NBUMPS" operator="lessThan" value="1.5"/>
              <Node id="-3" score="-0.0317363282324563">
                <SimplePredicate field="GENERGY" operator="lessThan" value="32715"/>
                <Node id="-4" score="-0.0338708988422786">
                  <SimplePredicate field="GDENERGY" operator="lessThan" value="118.5"/>
                  <Node id="-5" score="-0.0384151364366213">
                    <SimplePredicate field="GDPULS" operator="lessThan" value="-14.5"/>
                    <Node id="-6" score="0.000188350020086064">
                      <SimplePredicate field="GENERGY" operator="lessThan" value="1625"/>
                      <Node id="-7" score="-0.0534344086280236">
                        <SimplePredicate field="GPULS" operator="lessThan" value="13"/>
                        <Node id="1" score="-0.0535138994455338">
                          <SimplePredicate field="GDENERGY" operator="lessThan" value="-82"/>
                        </Node>
                        <Node id="2" score="-0.0526705748505063">
                          <True/>
                        </Node>
                      </Node>
                      <Node id="3" score="0.128279954195023">
                        <True/>
                      </Node>
                    </Node>
                    <Node id="-8" score="-0.0402033075649667">
                      <True/>
                      <Node id="-9" score="-0.0447898723152527">
                        <SimplePredicate field="GPULS" operator="lessThan" value="216.5"/>
                        <Node id="4" score="-0.0529061257839203">
                          <SimplePredicate field="GDENERGY" operator="lessThan" value="-84.5"/>
                        </Node>
                        <Node id="5" score="-0.0523199925224902">
                          <True/>
                        </Node>
                      </Node>
                      <Node id="-10" score="-0.0325922724129497">
                        <True/>
                        <Node id="6" score="0.175381445884705">
                          <SimplePredicate field="GPULS" operator="lessThan" value="225"/>
                        </Node>
                        <Node id="7" score="-0.0441040203983622">
                          <True/>
                        </Node>
                      </Node>
                    </Node>
                  </Node>
                  <Node id="-11" score="-0.0277908039425308">
                    <True/>
                    <Node id="-12" score="-0.00726680376312949">
                      <SimplePredicate field="GDPULS" operator="lessThan" value="6.5"/>
                      <Node id="-13" score="0.0172518946622547">
                        <SimplePredicate field="GENERGY" operator="lessThan" value="25305"/>
                        <Node id="8" score="-0.00333392066614968">
                          <SimplePredicate field="GPULS" operator="lessThan" value="523"/>
                        </Node>
                        <Node id="9" score="0.201204021771749">
                          <True/>
                        </Node>
                      </Node>
                      <Node id="-14" score="-0.0620733078788309">
                        <True/>
                        <Node id="10" score="-0.0532089118604307">
                          <SimplePredicate field="GPULS" operator="lessThan" value="533.5"/>
                        </Node>
                        <Node id="11" score="-0.0537894751344408">
                          <True/>
                        </Node>
                      </Node>
                    </Node>
                    <Node id="-15" score="-0.0405458326393602">
                      <True/>
                      <Node id="-16" score="0.0367222163412306">
                        <SimplePredicate field="GENERGY" operator="lessThan" value="4655"/>
                        <Node id="12" score="-0.0540183782577515">
                          <SimplePredicate field="GENERGY" operator="lessThan" value="3875"/>
                        </Node>
                        <Node id="13" score="0.127522081136703">
                          <True/>
                        </Node>
                      </Node>
                      <Node id="-17" score="-0.0446851934705462">
                        <True/>
                        <Node id="14" score="-0.0523304791183946">
                          <SimplePredicate field="GENERGY" operator="lessThan" value="31830"/>
                        </Node>
                        <Node id="15" score="-0.0525301439421518">
                          <True/>
                        </Node>
                      </Node>
                    </Node>
                  </Node>
                </Node>
                <Node id="-18" score="0.00498924996608343">
                  <True/>
                  <Node id="16" score="0.109859652817249">
                    <SimplePredicate field="GDENERGY" operator="lessThan" value="122"/>
                  </Node>
                  <Node id="-19" score="-0.0463865075792585">
                    <True/>
                    <Node id="-20" score="-0.0446516544588151">
                      <SimplePredicate field="GDPULS" operator="lessThan" value="234"/>
                      <Node id="17" score="-0.052330630796927">
                        <SimplePredicate field="GENERGY" operator="lessThan" value="29520"/>
                      </Node>
                      <Node id="18" score="-0.0523824691772461">
                        <True/>
                      </Node>
                    </Node>
                    <Node id="19" score="-0.053227175027132">
                      <True/>
                    </Node>
                  </Node>
                </Node>
              </Node>
              <Node id="-21" score="0.0067287512099781">
                <True/>
                <Node id="-22" score="-0.0046898969582149">
                  <SimplePredicate field="GPULS" operator="lessThan" value="1485"/>
                  <Node id="20" score="0.120295417308807">
                    <SimplePredicate field="GDPULS" operator="lessThan" value="-68.5"/>
                  </Node>
                  <Node id="-23" score="-0.00969092108986594">
                    <True/>
                    <Node id="21" score="0.119766220450401">
                      <SimplePredicate field="GENERGY" operator="lessThan" value="32945"/>
                    </Node>
                    <Node id="-24" score="-0.0147474603899291">
                      <True/>
                      <Node id="-25" score="0.00709048962928879">
                        <SimplePredicate field="GENERGY" operator="lessThan" value="52060"/>
                        <Node id="22" score="-0.0534360481031013">
                          <SimplePredicate field="GDPULS" operator="lessThan" value="-11.5"/>
                        </Node>
                        <Node id="23" score="0.0233726413971787">
                          <True/>
                        </Node>
                      </Node>
                      <Node id="-26" score="-0.0387861340544945">
                        <True/>
                        <Node id="24" score="0.0529019406863621">
                          <SimplePredicate field="GDPULS" operator="lessThan" value="-52.5"/>
                        </Node>
                        <Node id="25" score="-0.0396972015255787">
                          <True/>
                        </Node>
                      </Node>
                    </Node>
                  </Node>
                </Node>
                <Node id="-27" score="0.103614250818888">
                  <True/>
                  <Node id="26" score="0.130669847130775">
                    <SimplePredicate field="GDENERGY" operator="lessThan" value="-32.5"/>
                  </Node>
                  <Node id="-28" score="0.0331384724584119">
                    <True/>
                    <Node id="-29" score="-0.122461504406399">
                      <SimplePredicate field="GDENERGY" operator="lessThan" value="-3.5"/>
                      <Node id="27" score="-0.0668322518467903">
                        <SimplePredicate field="GDENERGY" operator="lessThan" value="-22"/>
                      </Node>
                      <Node id="28" score="-0.0559652745723724">
                        <True/>
                      </Node>
                    </Node>
                    <Node id="-30" score="0.103158462047577">
                      <True/>
                      <Node id="-31" score="0.223176977851174">
                        <SimplePredicate field="GDENERGY" operator="lessThan" value="34.5"/>
                        <Node id="29" score="0.152327626943588">
                          <SimplePredicate field="GENERGY" operator="lessThan" value="584140"/>
                        </Node>
                        <Node id="30" score="0.0429078340530396">
                          <True/>
                        </Node>
                      </Node>
                      <Node id="-32" score="-0.0435308350457086">
                        <True/>
                        <Node id="31" score="-0.0522755943238735">
                          <SimplePredicate field="SEISMOACOUSTIC_B" operator="lessThan" value="0.5"/>
                        </Node>
                        <Node id="32" score="-0.0522756040096283">
                          <True/>
                        </Node>
                      </Node>
                    </Node>
                  </Node>
                </Node>
              </Node>
            </Node>
            <Node id="-33" score="0.0613257822937239">
              <True/>
              <Node id="-34" score="-0.0268853711230414">
                <SimplePredicate field="NBUMPS2" operator="lessThan" value="0.5"/>
                <Node id="-35" score="0.0121989188523128">
                  <SimplePredicate field="SEISMIC_B" operator="lessThan" value="0.5"/>
                  <Node id="-36" score="-0.0489757607380549">
                    <SimplePredicate field="ENERGY" operator="lessThan" value="14000"/>
                    <Node id="33" score="-0.0542034506797791">
                      <SimplePredicate field="MAXENERGY" operator="lessThan" value="2500"/>
                    </Node>
                    <Node id="-37" score="-0.0435102550606979">
                      <True/>
                      <Node id="34" score="-0.0522720317045848">
                        <SimplePredicate field="GENERGY" operator="lessThan" value="74810"/>
                      </Node>
                      <Node id="35" score="-0.0522756118040818">
                        <True/>
                      </Node>
                    </Node>
                  </Node>
                  <Node id="36" score="0.18492546081543">
                    <True/>
                  </Node>
                </Node>
                <Node id="-38" score="-0.0688647914815832">
                  <True/>
                  <Node id="-39" score="-0.0455917174165899">
                    <SimplePredicate field="ENERGY" operator="lessThan" value="31500"/>
                    <Node id="37" score="-0.052663765847683">
                      <SimplePredicate field="ENERGY" operator="lessThan" value="5000"/>
                    </Node>
                    <Node id="38" score="-0.0522702421460833">
                      <True/>
                    </Node>
                  </Node>
                  <Node id="-40" score="-0.0848650336265564">
                    <True/>
                    <Node id="-41" score="-0.0707967380682627">
                      <SimplePredicate field="GDENERGY" operator="lessThan" value="48.5"/>
                      <Node id="39" score="-0.0550477753082911">
                        <SimplePredicate field="GDENERGY" operator="lessThan" value="-1.5"/>
                      </Node>
                      <Node id="40" score="-0.0536041706800461">
                        <True/>
                      </Node>
                    </Node>
                    <Node id="41" score="-0.0573711283504963">
                      <True/>
                    </Node>
                  </Node>
                </Node>
              </Node>
              <Node id="-42" score="0.0845174476014616">
                <True/>
                <Node id="-43" score="0.0390521339748217">
                  <SimplePredicate field="GPULS" operator="lessThan" value="618"/>
                  <Node id="-44" score="0.0773529231548309">
                    <SimplePredicate field="GDPULS" operator="lessThan" value="8"/>
                    <Node id="-45" score="0.0182573040326436">
                      <SimplePredicate field="ENERGY" operator="lessThan" value="4650"/>
                      <Node id="-46" score="-0.0832851901650429">
                        <SimplePredicate field="GDPULS" operator="lessThan" value="-40.5"/>
                        <Node id="42" score="-0.0585182309150696">
                          <SimplePredicate field="GDENERGY" operator="lessThan" value="-57.5"/>
                        </Node>
                        <Node id="43" score="-0.054009810090065">
                          <True/>
                        </Node>
                      </Node>
                      <Node id="-47" score="0.0742807470518967">
                        <True/>
                        <Node id="44" score="0.104235756397247">
                          <SimplePredicate field="GDENERGY" operator="lessThan" value="-40.5"/>
                        </Node>
                        <Node id="45" score="0.0128770507872105">
                          <True/>
                        </Node>
                      </Node>
                    </Node>
                    <Node id="-48" score="0.153333009992327">
                      <True/>
                      <Node id="-49" score="0.395604228973389">
                        <SimplePredicate field="SEISMOACOUSTIC_A" operator="lessThan" value="0.5"/>
                        <Node id="46" score="0.0506653308868408">
                          <SimplePredicate field="GDPULS" operator="lessThan" value="-49"/>
                        </Node>
                        <Node id="47" score="0.170271551609039">
                          <True/>
                        </Node>
                      </Node>
                      <Node id="-50" score="0.0564245176315308">
                        <True/>
                        <Node id="48" score="0.162160313129425">
                          <SimplePredicate field="GDPULS" operator="lessThan" value="-56.5"/>
                        </Node>
                        <Node id="49" score="-0.0240812435746193">
                          <True/>
                        </Node>
                      </Node>
                    </Node>
                  </Node>
                  <Node id="-51" score="-0.048492533820016">
                    <True/>
                    <Node id="-52" score="0.0353769659996033">
                      <SimplePredicate field="ENERGY" operator="lessThan" value="2750"/>
                      <Node id="50" score="-0.0531246773898602">
                        <SimplePredicate field="GENERGY" operator="lessThan" value="36715"/>
                      </Node>
                      <Node id="51" score="0.0700863674283028">
                        <True/>
                      </Node>
                    </Node>
                    <Node id="-53" score="-0.0733427559887921">
                      <True/>
                      <Node id="-54" score="-0.060535893720739">
                        <SimplePredicate field="GPULS" operator="lessThan" value="464.5"/>
                        <Node id="52" score="-0.0548921748995781">
                          <SimplePredicate field="GDENERGY" operator="lessThan" value="5"/>
                        </Node>
                        <Node id="53" score="-0.0528887372750502">
                          <True/>
                        </Node>
                      </Node>
                      <Node id="-55" score="-0.0951144218444824">
                        <True/>
                        <Node id="54" score="-0.0567451938986778">
                          <SimplePredicate field="GDPULS" operator="lessThan" value="36"/>
                        </Node>
                        <Node id="55" score="-0.0546490252017975">
                          <True/>
                        </Node>
                      </Node>
                    </Node>
                  </Node>
                </Node>
                <Node id="-56" score="0.137869601347009">
                  <True/>
                  <Node id="-57" score="0.153647129352276">
                    <SimplePredicate field="GDENERGY" operator="lessThan" value="123"/>
                    <Node id="-58" score="0.350890696048737">
                      <SimplePredicate field="GHAZARD_A" operator="lessThan" value="0.5"/>
                      <Node id="56" score="0.211256504058838">
                        <SimplePredicate field="GENERGY" operator="lessThan" value="88125"/>
                      </Node>
                      <Node id="57" score="0.0591096393764019">
                        <True/>
                      </Node>
                    </Node>
                    <Node id="-59" score="0.134635695491929">
                      <True/>
                      <Node id="-60" score="-0.0191093664616346">
                        <SimplePredicate field="MAXENERGY" operator="lessThan" value="1500"/>
                        <Node id="58" score="0.0974503308534622">
                          <SimplePredicate field="GDPULS" operator="lessThan" value="-22.5"/>
                        </Node>
                        <Node id="59" score="-0.0552163670460383">
                          <True/>
                        </Node>
                      </Node>
                      <Node id="-61" score="0.171350934612217">
                        <True/>
                        <Node id="60" score="0.0759972674506051">
                          <SimplePredicate field="ENERGY" operator="lessThan" value="40650"/>
                        </Node>
                        <Node id="61" score="-0.0107520791617307">
                          <True/>
                        </Node>
                      </Node>
                    </Node>
                  </Node>
                  <Node id="62" score="-0.0539141850812095">
                    <True/>
                  </Node>
                </Node>
              </Node>
            </Node>
          </Node>
        </TreeModel>
      </Segment>
      <Segment id="Tree6">
        <True/>
        <TreeModel modelName="Tree6" functionName="regression" algorithmName="MART" missingValueStrategy="none" splitCharacteristic="binarySplit">
          <MiningSchema>
            <MiningField name="GENERGY" usageType="active"/>
            <MiningField name="GPULS" usageType="active"/>
            <MiningField name="GDENERGY" usageType="active"/>
            <MiningField name="GDPULS" usageType="active"/>
            <MiningField name="NBUMPS" usageType="active"/>
            <MiningField name="NBUMPS2" usageType="active"/>
            <MiningField name="NBUMPS3" usageType="active"/>
            <MiningField name="NBUMPS4" usageType="active"/>
            <MiningField name="ENERGY" usageType="active"/>
            <MiningField name="MAXENERGY" usageType="active"/>
            <MiningField name="SEISMOACOUSTIC_B" usageType="active"/>
            <MiningField name="GHAZARD_A" usageType="active"/>
            <MiningField name="SEISMIC_A" usageType="active"/>
          </MiningSchema>
          <Output>
            <OutputField name="Response6" optype="continuous" dataType="double" feature="predictedValue"/>
            <OutputField name="Node6" optype="categorical" dataType="integer" feature="entityId"/>
          </Output>
          <Node id="-1" score="-0.00310344887960806">
            <True/>
            <Node id="-2" score="-0.0182407655091346">
              <SimplePredicate field="NBUMPS" operator="lessThan" value="1.5"/>
              <Node id="-3" score="-0.0288325376913581">
                <SimplePredicate field="GENERGY" operator="lessThan" value="32715"/>
                <Node id="-4" score="-0.0348139554262161">
                  <SimplePredicate field="GDPULS" operator="lessThan" value="-14.5"/>
                  <Node id="-5" score="0.00297324848361313">
                    <SimplePredicate field="GDENERGY" operator="lessThan" value="-84.5"/>
                    <Node id="-6" score="-0.0483710517485937">
                      <SimplePredicate field="GDPULS" operator="lessThan" value="-76"/>
                      <Node id="1" score="-0.0531787797808647">
                        <SimplePredicate field="GENERGY" operator="lessThan" value="3660"/>
                      </Node>
                      <Node id="2" score="-0.0522639229893684">
                        <True/>
                      </Node>
                    </Node>
                    <Node id="3" score="0.0961688086390495">
                      <True/>
                    </Node>
                  </Node>
                  <Node id="-7" score="-0.0364568777706312">
                    <True/>
                    <Node id="-8" score="-0.0407512053782806">
                      <SimplePredicate field="GENERGY" operator="lessThan" value="13565"/>
                      <Node id="-9" score="-0.0487715280972994">
                        <SimplePredicate field="GENERGY" operator="lessThan" value="1625"/>
                        <Node id="4" score="-0.0521985656685299">
                          <SimplePredicate field="GENERGY" operator="lessThan" value="1305"/>
                        </Node>
                        <Node id="5" score="-0.0535949654877186">
                          <True/>
                        </Node>
                      </Node>
                      <Node id="-10" score="-0.0402729314401609">
                        <True/>
                        <Node id="6" score="-0.0520674684545496">
                          <SimplePredicate field="GPULS" operator="lessThan" value="217.5"/>
                        </Node>
                        <Node id="7" score="-0.0522980060842302">
                          <True/>
                        </Node>
                      </Node>
                    </Node>
                    <Node id="-11" score="-0.0292160772059086">
                      <True/>
                      <Node id="8" score="0.21433687210083">
                        <SimplePredicate field="GENERGY" operator="lessThan" value="14025"/>
                      </Node>
                      <Node id="-12" score="-0.0361296754134329">
                        <True/>
                        <Node id="9" score="-0.0257131258646647">
                          <SimplePredicate field="GENERGY" operator="lessThan" value="18695"/>
                        </Node>
                        <Node id="10" score="-0.0522841865366155">
                          <True/>
                        </Node>
                      </Node>
                    </Node>
                  </Node>
                </Node>
                <Node id="-13" score="-0.0217869398784052">
                  <True/>
                  <Node id="-14" score="-0.0108330890696536">
                    <SimplePredicate field="GENERGY" operator="lessThan" value="21260"/>
                    <Node id="-15" score="-0.0202994583720002">
                      <SimplePredicate field="GENERGY" operator="lessThan" value="20740"/>
                      <Node id="-16" score="0.0260085695319706">
                        <SimplePredicate field="GPULS" operator="lessThan" value="199"/>
                        <Node id="11" score="-0.0228361025933296">
                          <SimplePredicate field="GPULS" operator="lessThan" value="181.5"/>
                        </Node>
                        <Node id="12" score="0.285444641113281">
                          <True/>
                        </Node>
                      </Node>
                      <Node id="-17" score="-0.0317966230984392">
                        <True/>
                        <Node id="13" score="-0.0526755221255191">
                          <SimplePredicate field="GENERGY" operator="lessThan" value="16840"/>
                        </Node>
                        <Node id="14" score="0.0185941037009744">
                          <True/>
                        </Node>
                      </Node>
                    </Node>
                    <Node id="15" score="0.263698601722717">
                      <True/>
                    </Node>
                  </Node>
                  <Node id="-18" score="-0.0363399130957467">
                    <True/>
                    <Node id="-19" score="-0.0178358793258667">
                      <SimplePredicate field="SEISMIC_A" operator="lessThan" value="0.5"/>
                      <Node id="16" score="0.0991157633917672">
                        <SimplePredicate field="GDENERGY" operator="lessThan" value="-19"/>
                      </Node>
                      <Node id="-20" score="-0.0325111420649403">
                        <True/>
                        <Node id="17" score="-0.0525104681650798">
                          <SimplePredicate field="GDPULS" operator="lessThan" value="98.5"/>
                        </Node>
                        <Node id="18" score="0.0344032868742943">
                          <True/>
                        </Node>
                      </Node>
                    </Node>
                    <Node id="-21" score="-0.0502179384231567">
                      <True/>
                      <Node id="-22" score="-0.0473319896279949">
                        <SimplePredicate field="GDPULS" operator="lessThan" value="126.5"/>
                        <Node id="19" score="-0.053186080285481">
                          <SimplePredicate field="GDPULS" operator="lessThan" value="7.5"/>
                        </Node>
                        <Node id="20" score="-0.0521159225040012">
                          <True/>
                        </Node>
                      </Node>
                      <Node id="21" score="-0.0625024735927582">
                        <True/>
                      </Node>
                    </Node>
                  </Node>
                </Node>
              </Node>
              <Node id="-23" score="0.00578530032794696">
                <True/>
                <Node id="-24" score="-0.0553931803316683">
                  <SimplePredicate field="GHAZARD_A" operator="lessThan" value="0.5"/>
                  <Node id="-25" score="-0.0752429813146591">
                    <SimplePredicate field="GPULS" operator="lessThan" value="805.5"/>
                    <Node id="22" score="-0.0533805340528488">
                      <SimplePredicate field="GDENERGY" operator="lessThan" value="111.5"/>
                    </Node>
                    <Node id="23" score="-0.0549664199352264">
                      <True/>
                    </Node>
                  </Node>
                  <Node id="-26" score="-0.0458652782440186">
                    <True/>
                    <Node id="-27" score="-0.0497573282983568">
                      <SimplePredicate field="GENERGY" operator="lessThan" value="52210"/>
                      <Node id="24" score="-0.0526474952697754">
                        <SimplePredicate field="GPULS" operator="lessThan" value="983"/>
                      </Node>
                      <Node id="25" score="-0.0525862984359264">
                        <True/>
                      </Node>
                    </Node>
                    <Node id="-28" score="-0.0436760000884533">
                      <True/>
                      <Node id="26" score="-0.0522079517443975">
                        <SimplePredicate field="GENERGY" operator="lessThan" value="68365"/>
                      </Node>
                      <Node id="27" score="-0.0523337423801422">
                        <True/>
                      </Node>
                    </Node>
                  </Node>
                </Node>
                <Node id="-29" score="0.0139867637468421">
                  <True/>
                  <Node id="-30" score="-0.0344435031597431">
                    <SimplePredicate field="GPULS" operator="lessThan" value="332.5"/>
                    <Node id="-31" score="-0.0480013529459635">
                      <SimplePredicate field="GDPULS" operator="lessThan" value="46"/>
                      <Node id="-32" score="-0.0620683985097068">
                        <SimplePredicate field="ENERGY" operator="lessThan" value="5500"/>
                        <Node id="28" score="-0.0592566877603531">
                          <SimplePredicate field="GENERGY" operator="lessThan" value="34625"/>
                        </Node>
                        <Node id="29" score="-0.0533186655778151">
                          <True/>
                        </Node>
                      </Node>
                      <Node id="30" score="0.0852727666497231">
                        <True/>
                      </Node>
                    </Node>
                    <Node id="31" score="0.0966523230075836">
                      <True/>
                    </Node>
                  </Node>
                  <Node id="-33" score="0.0289060402820461">
                    <True/>
                    <Node id="-34" score="0.117566948351653">
                      <SimplePredicate field="GPULS" operator="lessThan" value="525.5"/>
                      <Node id="-35" score="0.172773906162807">
                        <SimplePredicate field="ENERGY" operator="lessThan" value="950"/>
                        <Node id="32" score="0.230475425720215">
                          <SimplePredicate field="GDENERGY" operator="lessThan" value="16.5"/>
                        </Node>
